{"learner":{"attributes":{"scikit_learn":"{\"_estimator_type\": \"regressor\"}"},"feature_names":["Age","Overall","Potential","Sprint_Speed","Finishing","Short_Passing","Dribbling","Standing_Tackle","Strength","Career_Stage_28+ (Veteran)","Career_Stage_U21 (Wonderkid)","Broad_Position_Defender","Broad_Position_Midfielder"],"feature_types":["int","float","float","float","float","float","float","float","float","int","int","int","int"],"gradient_booster":{"model":{"cats":{"enc":[],"feature_segments":[],"sorted_idx":[]},"gbtree_model_param":{"num_parallel_tree":"1","num_trees":"150"},"iteration_indptr":[0,1,2,3,4,5,6,7,8,9,10,11,12,13,14,15,16,17,18,19,20,21,22,23,24,25,26,27,28,29,30,31,32,33,34,35,36,37,38,39,40,41,42,43,44,45,46,47,48,49,50,51,52,53,54,55,56,57,58,59,60,61,62,63,64,65,66,67,68,69,70,71,72,73,74,75,76,77,78,79,80,81,82,83,84,85,86,87,88,89,90,91,92,93,94,95,96,97,98,99,100,101,102,103,104,105,106,107,108,109,110,111,112,113,114,115,116,117,118,119,120,121,122,123,124,125,126,127,128,129,130,131,132,133,134,135,136,137,138,139,140,141,142,143,144,145,146,147,148,149,150],"tree_info":[0,0,0,0,0,0,0,0,0,0,0,0,0,0,0,0,0,0,0,0,0,0,0,0,0,0,0,0,0,0,0,0,0,0,0,0,0,0,0,0,0,0,0,0,0,0,0,0,0,0,0,0,0,0,0,0,0,0,0,0,0,0,0,0,0,0,0,0,0,0,0,0,0,0,0,0,0,0,0,0,0,0,0,0,0,0,0,0,0,0,0,0,0,0,0,0,0,0,0,0,0,0,0,0,0,0,0,0,0,0,0,0,0,0,0,0,0,0,0,0,0,0,0,0,0,0,0,0,0,0,0,0,0,0,0,0,0,0,0,0,0,0,0,0,0,0,0,0,0,0],"trees":[{"base_weights":[-3.1495257E-3,-1.4864977E-1,4.508742E-1,-2.1026234E-1,4.157932E-2,2.833343E-1,8.6145294E-1,-2.5089562E-1,-3.152076E-2,-2.265172E-1,2.1857786E-1,-1.6404997E-1,3.7521675E-1,2.1811629E-2,4.688823E-2,-1.3599448E-2,7.564902E-4,-8.14627E-3,5.1255305E-3,-1.2744839E-2,4.97942E-3,1.9513343E-2,5.417085E-3,-1.7935619E-2,1.0753537E-2,5.8864164E-3,2.461121E-2],"categories":[],"categories_nodes":[],"categories_segments":[],"categories_sizes":[],"default_left":[0,0,0,0,0,0,0,0,0,0,0,0,0,0,0,0,0,0,0,0,0,0,0,0,0,0,0],"id":0,"left_children":[1,3,5,7,9,11,13,15,17,19,21,23,25,-1,-1,-1,-1,-1,-1,-1,-1,-1,-1,-1,-1,-1,-1],"loss_changes":[1.3609438E1,1.837141E0,3.1953363E0,8.491087E-1,1.9001667E0,1.5825047E0,4.520607E-2,5.428066E-1,4.217855E-1,1.7346066E-1,4.1194975E-1,5.937524E-1,8.760214E-1,0E0,0E0,0E0,0E0,0E0,0E0,0E0,0E0,0E0,0E0,0E0,0E0,0E0,0E0],"parents":[2147483647,0,0,1,1,2,2,3,3,4,4,5,5,6,6,7,7,8,8,9,9,10,10,11,11,12,12],"right_children":[2,4,6,8,10,12,14,16,18,20,22,24,26,-1,-1,-1,-1,-1,-1,-1,-1,-1,-1,-1,-1,-1,-1],"split_conditions":[8.7E1,8.3E1,8.6E1,8.6E1,6.7E1,2E1,8.1E1,2.9E1,7.8E1,8.4E1,4.5E1,8.1E1,7.2E1,2.1811629E-2,4.688823E-2,-1.3599448E-2,7.564902E-4,-8.14627E-3,5.1255305E-3,-1.2744839E-2,4.97942E-3,1.9513343E-2,5.417085E-3,-1.7935619E-2,1.0753537E-2,5.8864164E-3,2.461121E-2],"split_indices":[2,6,6,2,8,0,4,0,7,4,7,3,7,0,0,0,0,0,0,0,0,0,0,0,0,0,0],"split_type":[0,0,0,0,0,0,0,0,0,0,0,0,0,0,0,0,0,0,0,0,0,0,0,0,0,0,0],"sum_hessian":[2.04E2,1.55E2,4.9E1,1.17E2,3.8E1,3.6E1,1.3E1,9.5E1,2.2E1,1.5E1,2.3E1,6E0,3E1,3E0,1E1,8.8E1,7E0,1.1E1,1.1E1,1.4E1,1E0,8E0,1.5E1,4E0,2E0,1E1,2E1],"tree_param":{"num_deleted":"0","num_feature":"13","num_nodes":"27","size_leaf_vector":"1"}},{"base_weights":[-6.452163E-4,-1.471219E-1,5.273672E-1,-2.1459691E-1,-1.1324692E-3,6.7961943E-1,7.741388E-2,-2.3620498E-1,2.6912728E-1,3.4111643E-1,-1.0641079E-1,4.7070855E-1,4.5729857E-2,-1.3367939E-1,2.4729183E-1,-3.0949211E-3,-1.316161E-2,2.2825098E-2,-1.2009287E-2,8.326101E-3,2.2101892E-2,-1.4507788E-3,-1.5038949E-2,4.4915676E-3,2.434389E-2,-1.2318349E-2,3.0565262E-3,1.809475E-2,-1.3072015E-3],"categories":[],"categories_nodes":[],"categories_segments":[],"categories_sizes":[],"default_left":[0,0,0,0,0,0,0,0,0,0,0,0,0,0,0,0,0,0,0,0,0,0,0,0,0,0,0,0,0],"id":1,"left_children":[1,3,5,7,9,11,13,15,17,19,21,23,-1,25,27,-1,-1,-1,-1,-1,-1,-1,-1,-1,-1,-1,-1,-1,-1],"loss_changes":[1.5313865E1,1.5266056E0,2.8931627E0,1.1715183E0,1.8378679E0,1.1403513E0,4.633789E-1,4.6423006E-1,5.868071E-1,1.378349E-1,5.779563E-1,7.327461E-2,0E0,1.467765E-1,2.2881764E-1,0E0,0E0,0E0,0E0,0E0,0E0,0E0,0E0,0E0,0E0,0E0,0E0,0E0,0E0],"parents":[2147483647,0,0,1,1,2,2,3,3,4,4,5,5,6,6,7,7,8,8,9,9,10,10,11,11,13,13,14,14],"right_children":[2,4,6,8,10,12,14,16,18,20,22,24,-1,26,28,-1,-1,-1,-1,-1,-1,-1,-1,-1,-1,-1,-1,-1,-1],"split_conditions":[8.4E1,8.1E1,2.7E1,2.8E1,2.4E1,8.9E1,8.6E1,2E1,7.1E1,8.7E1,2.7E1,3.7E1,4.5729857E-2,6.6E1,8.9E1,-3.0949211E-3,-1.316161E-2,2.2825098E-2,-1.2009287E-2,8.326101E-3,2.2101892E-2,-1.4507788E-3,-1.5038949E-2,4.4915676E-3,2.434389E-2,-1.2318349E-2,3.0565262E-3,1.809475E-2,-1.3072015E-3],"split_indices":[1,1,0,0,0,2,1,0,1,2,0,7,0,3,5,0,0,0,0,0,0,0,0,0,0,0,0,0,0],"split_type":[0,0,0,0,0,0,0,0,0,0,0,0,0,0,0,0,0,0,0,0,0,0,0,0,0,0,0,0,0],"sum_hessian":[1.96E2,1.54E2,4.2E1,1.05E2,4.9E1,3.1E1,1.1E1,1.01E2,4E0,1.1E1,3.8E1,1.8E1,1.3E1,5E0,6E0,1.4E1,8.7E1,3E0,1E0,5E0,6E0,2.8E1,1E1,1E0,1.7E1,3E0,2E0,4E0,2E0],"tree_param":{"num_deleted":"0","num_feature":"13","num_nodes":"29","size_leaf_vector":"1"}},{"base_weights":[1.1358014E-3,-1.6983835E-1,3.9232862E-1,-2.2524418E-1,-6.472274E-2,1.374747E-1,5.513332E-1,-2.5387082E-1,2.1969153E-2,1.1261896E-1,-1.2696494E-1,1.9192056E-1,-1.07803725E-1,5.904926E-1,9.043503E-2,-1.3238418E-2,1.6538048E-2,-2.7486393E-3,1.3206114E-2,-8.153616E-3,4.0375395E-3,3.4746432E-3,1.5369949E-2,-1.1701345E-2,-8.870602E-4,1.5368384E-2,3.5011332E-2,-1.2636503E-3,1.0938979E-2],"categories":[],"categories_nodes":[],"categories_segments":[],"categories_sizes":[],"default_left":[0,0,0,0,0,0,0,0,0,0,0,0,0,0,0,0,0,0,0,0,0,0,0,0,0,0,0,0,0],"id":2,"left_children":[1,3,5,7,9,11,13,15,-1,17,19,21,23,25,27,-1,-1,-1,-1,-1,-1,-1,-1,-1,-1,-1,-1,-1,-1],"loss_changes":[1.2975218E1,7.716639E-1,2.3150597E0,1.7858386E0,5.4412925E-1,3.411953E-1,5.96344E-1,6.2911415E-1,0E0,3.4459877E-1,2.8317088E-1,2.6139307E-1,5.2687973E-2,8.1003094E-1,6.49312E-2,0E0,0E0,0E0,0E0,0E0,0E0,0E0,0E0,0E0,0E0,0E0,0E0,0E0,0E0],"parents":[2147483647,0,0,1,1,2,2,3,3,4,4,5,5,6,6,7,7,9,9,10,10,11,11,12,12,13,13,14,14],"right_children":[2,4,6,8,10,12,14,16,-1,18,20,22,24,26,28,-1,-1,-1,-1,-1,-1,-1,-1,-1,-1,-1,-1,-1,-1],"split_conditions":[8.3E1,8E1,8.7E1,2.8E1,4.6E1,2.8E1,2.8E1,8.9E1,2.1969153E-2,4E1,8.4E1,8.4E1,5.8E1,8.5E1,3.1E1,-1.3238418E-2,1.6538048E-2,-2.7486393E-3,1.3206114E-2,-8.153616E-3,4.0375395E-3,3.4746432E-3,1.5369949E-2,-1.1701345E-2,-8.870602E-4,1.5368384E-2,3.5011332E-2,-1.2636503E-3,1.0938979E-2],"split_indices":[1,1,2,0,7,0,0,2,0,7,5,1,3,1,0,0,0,0,0,0,0,0,0,0,0,0,0,0,0],"split_type":[0,0,0,0,0,0,0,0,0,0,0,0,0,0,0,0,0,0,0,0,0,0,0,0,0,0,0,0,0],"sum_hessian":[1.92E2,1.34E2,5.8E1,8.7E1,4.7E1,2.3E1,3.5E1,8.4E1,3E0,1.2E1,3.5E1,1.9E1,4E0,3.2E1,3E0,8.3E1,1E0,6E0,6E0,3E1,5E0,1E1,9E0,1E0,3E0,1E1,2.2E1,2E0,1E0],"tree_param":{"num_deleted":"0","num_feature":"13","num_nodes":"29","size_leaf_vector":"1"}},{"base_weights":[8.8141946E-4,-1.3377981E-1,4.4131747E-1,-2.0318504E-1,4.9083278E-2,2.8365472E-1,3.846326E-2,-2.2149444E-1,2.4025878E-1,3.0166435E-1,-5.506164E-2,-1.4639113E-2,3.7600046E-1,-1.1472189E-2,1.6124582E-2,2.114532E-2,-1.2258291E-2,2.0194054E-3,2.0664979E-2,-4.4258903E-3,7.1652606E-3,-8.39154E-3,1.0940409E-2,2.0813847E-2,2.5205375E-3],"categories":[],"categories_nodes":[],"categories_segments":[],"categories_sizes":[],"default_left":[0,0,0,0,0,0,0,0,0,0,0,0,0,0,0,0,0,0,0,0,0,0,0,0,0],"id":3,"left_children":[1,3,5,7,9,11,-1,13,15,17,19,21,23,-1,-1,-1,-1,-1,-1,-1,-1,-1,-1,-1,-1],"loss_changes":[1.215821E1,2.0025628E0,2.2636414E0,9.7880316E-1,1.1740316E0,9.420743E-1,0E0,5.4966974E-1,5.469904E-1,3.6248672E-1,2.2505608E-1,3.5858235E-1,3.199687E-1,0E0,0E0,0E0,0E0,0E0,0E0,0E0,0E0,0E0,0E0,0E0,0E0],"parents":[2147483647,0,0,1,1,2,2,3,3,4,4,5,5,7,7,8,8,9,9,10,10,11,11,12,12],"right_children":[2,4,6,8,10,12,-1,14,16,18,20,22,24,-1,-1,-1,-1,-1,-1,-1,-1,-1,-1,-1,-1],"split_conditions":[8.4E1,8.1E1,8.9E1,2.8E1,2.3E1,8.6E1,3.846326E-2,8.9E1,7.1E1,8.7E1,8.3E1,7.9E1,2.8E1,-1.1472189E-2,1.6124582E-2,2.114532E-2,-1.2258291E-2,2.0194054E-3,2.0664979E-2,-4.4258903E-3,7.1652606E-3,-8.39154E-3,1.0940409E-2,2.0813847E-2,2.5205375E-3],"split_indices":[1,1,2,0,0,2,0,2,1,2,4,3,0,0,0,0,0,0,0,0,0,0,0,0,0],"split_type":[0,0,0,0,0,0,0,0,0,0,0,0,0,0,0,0,0,0,0,0,0,0,0,0,0],"sum_hessian":[2.03E2,1.56E2,4.7E1,1.13E2,4.3E1,3.3E1,1.4E1,1.09E2,4E0,1.2E1,3.1E1,8E0,2.5E1,1.08E2,1E0,3E0,1E0,4E0,8E0,2.7E1,4E0,5E0,3E0,2.2E1,3E0],"tree_param":{"num_deleted":"0","num_feature":"13","num_nodes":"25","size_leaf_vector":"1"}},{"base_weights":[-2.2987348E-3,-1.3792624E-1,4.6114314E-1,-2.0618214E-1,1.305151E-2,6.124973E-1,1.20153666E-1,-2.243E-1,2.3002358E-1,2.425201E-1,-8.6530894E-2,4.7782812E-1,8.0834943E-1,-9.317517E-2,2.964289E-1,-8.031062E-3,-1.5244216E-2,2.0352388E-2,-1.1951828E-2,-4.120398E-3,1.3483792E-2,-4.2956555E-4,-1.48054315E-2,3.4747124E-3,2.4698166E-2,4.4822555E-2,2.040167E-2,-1.5383179E-2,1.4799119E-3,2.43152E-3,1.8014064E-2],"categories":[],"categories_nodes":[],"categories_segments":[],"categories_sizes":[],"default_left":[0,0,0,0,0,0,0,0,0,0,0,0,0,0,0,0,0,0,0,0,0,0,0,0,0,0,0,0,0,0,0],"id":4,"left_children":[1,3,5,7,9,11,13,15,17,19,21,23,25,27,29,-1,-1,-1,-1,-1,-1,-1,-1,-1,-1,-1,-1,-1,-1,-1,-1],"loss_changes":[1.3326106E1,1.6927309E0,2.403696E0,9.4464636E-1,1.2092392E0,4.8413086E-1,6.292932E-1,5.103636E-1,5.1247424E-1,1.634019E-1,6.018289E-1,1.106205E-1,5.744028E-2,2.197741E-1,1.2488204E-1,0E0,0E0,0E0,0E0,0E0,0E0,0E0,0E0,0E0,0E0,0E0,0E0,0E0,0E0,0E0,0E0],"parents":[2147483647,0,0,1,1,2,2,3,3,4,4,5,5,6,6,7,7,8,8,9,9,10,10,11,11,12,12,13,13,14,14],"right_children":[2,4,6,8,10,12,14,16,18,20,22,24,26,28,30,-1,-1,-1,-1,-1,-1,-1,-1,-1,-1,-1,-1,-1,-1,-1,-1],"split_conditions":[8.4E1,8.1E1,2.7E1,2.8E1,2.4E1,8.7E1,7.5E1,2.3E1,7.1E1,5.7E1,2.7E1,3.7E1,1E0,6.7E1,8.6E1,-8.031062E-3,-1.5244216E-2,2.0352388E-2,-1.1951828E-2,-4.120398E-3,1.3483792E-2,-4.2956555E-4,-1.48054315E-2,3.4747124E-3,2.4698166E-2,4.4822555E-2,2.040167E-2,-1.5383179E-2,1.4799119E-3,2.43152E-3,1.8014064E-2],"split_indices":[1,1,0,0,0,1,8,0,1,8,0,7,11,4,1,0,0,0,0,0,0,0,0,0,0,0,0,0,0,0,0],"split_type":[0,0,0,0,0,0,0,0,0,0,0,0,0,0,0,0,0,0,0,0,0,0,0,0,0,0,0,0,0,0,0],"sum_hessian":[2.1E2,1.63E2,4.7E1,1.12E2,5.1E1,3.2E1,1.5E1,1.08E2,4E0,1.5E1,3.6E1,2.1E1,1.1E1,7E0,8E0,6.2E1,4.6E1,3E0,1E0,1E0,1.4E1,2.7E1,9E0,1E0,2E1,8E0,3E0,2E0,5E0,2E0,6E0],"tree_param":{"num_deleted":"0","num_feature":"13","num_nodes":"31","size_leaf_vector":"1"}},{"base_weights":[1.4055597E-2,-1.0353071E-1,5.036639E-1,-1.8763979E-1,5.6732804E-2,5.846616E-1,1.515225E-2,-2.0012176E-1,1.7253049E-2,1.2393394E-1,-2.5999364E-1,4.171949E-1,7.6792026E-1,-1.0814428E-2,8.977381E-2,-1.1559273E-2,-5.10861E-3,1.4161753E-2,2.8001424E-3,-1.4185485E-2,-5.7082175E-4,2.3884755E-2,1.1397621E-2,4.268895E-2,2.0413762E-2,1.685009E-3,9.253549E-3],"categories":[],"categories_nodes":[],"categories_segments":[],"categories_sizes":[],"default_left":[0,0,0,0,0,0,0,0,0,0,0,0,0,0,0,0,0,0,0,0,0,0,0,0,0,0,0],"id":5,"left_children":[1,3,5,7,9,11,13,15,-1,17,19,21,23,-1,25,-1,-1,-1,-1,-1,-1,-1,-1,-1,-1,-1,-1],"loss_changes":[1.248753E1,2.3695784E0,1.6530113E0,8.3370686E-1,1.330569E0,7.844572E-1,1.4031038E-1,3.2020187E-1,0E0,5.360344E-1,6.160897E-2,1.3154173E-1,1.4548206E-1,0E0,2.5825031E-2,0E0,0E0,0E0,0E0,0E0,0E0,0E0,0E0,0E0,0E0,0E0,0E0],"parents":[2147483647,0,0,1,1,2,2,3,3,4,4,5,5,6,6,7,7,9,9,10,10,11,11,12,12,14,14],"right_children":[2,4,6,8,10,12,14,16,-1,18,20,22,24,-1,26,-1,-1,-1,-1,-1,-1,-1,-1,-1,-1,-1,-1],"split_conditions":[8.5E1,8.1E1,2.8E1,2.9E1,2.7E1,8.7E1,5.8E1,8.1E1,1.7253049E-2,2.3E1,8.6E1,1E0,1E0,-1.0814428E-2,3.1E1,-1.1559273E-2,-5.10861E-3,1.4161753E-2,2.8001424E-3,-1.4185485E-2,-5.7082175E-4,2.3884755E-2,1.1397621E-2,4.268895E-2,2.0413762E-2,1.685009E-3,9.253549E-3],"split_indices":[1,1,0,0,0,1,3,6,0,0,7,11,11,0,0,0,0,0,0,0,0,0,0,0,0,0,0],"split_type":[0,0,0,0,0,0,0,0,0,0,0,0,0,0,0,0,0,0,0,0,0,0,0,0,0,0,0],"sum_hessian":[2.15E2,1.74E2,4.1E1,1.14E2,6E1,3.5E1,6E0,1.12E2,2E0,5E1,1E1,2E1,1.5E1,1E0,5E0,8.4E1,2.8E1,1.4E1,3.6E1,9E0,1E0,1.4E1,6E0,1.1E1,4E0,4E0,1E0],"tree_param":{"num_deleted":"0","num_feature":"13","num_nodes":"27","size_leaf_vector":"1"}},{"base_weights":[4.266182E-3,-1.1308286E-1,3.8311693E-1,-1.9408868E-1,-3.7903003E-3,-1.9820532E-2,4.6419993E-1,-2.1604131E-1,2.1792373E-1,-2.7569592E-2,1.8881297E-2,-2.2237206E-1,1.1851724E-1,5.0098777E-1,7.862568E-3,-1.1725898E-2,-1.697943E-3,1.9302273E-2,-1.1364079E-2,-1.3210691E-4,-1.1508643E-2,-5.5656437E-4,-1.4453761E-2,1.0750898E-2,8.2561973E-4,1.7807862E-2,3.44831E-2,3.801298E-3,-2.0100276E-3],"categories":[],"categories_nodes":[],"categories_segments":[],"categories_sizes":[],"default_left":[0,0,0,0,0,0,0,0,0,0,0,0,0,0,0,0,0,0,0,0,0,0,0,0,0,0,0,0,0],"id":6,"left_children":[1,3,5,7,9,11,13,15,17,19,-1,21,23,25,27,-1,-1,-1,-1,-1,-1,-1,-1,-1,-1,-1,-1,-1,-1],"loss_changes":[9.023794E0,1.371531E0,1.5774264E0,8.5206366E-1,6.180881E-1,2.7853966E-1,6.6756725E-1,2.7799916E-1,4.619844E-1,3.226164E-1,0E0,5.314392E-2,5.5510774E-2,7.6542664E-1,1.6160868E-2,0E0,0E0,0E0,0E0,0E0,0E0,0E0,0E0,0E0,0E0,0E0,0E0,0E0,0E0],"parents":[2147483647,0,0,1,1,2,2,3,3,4,4,5,5,6,6,7,7,8,8,9,9,11,11,12,12,13,13,14,14],"right_children":[2,4,6,8,10,12,14,16,18,20,-1,22,24,26,28,-1,-1,-1,-1,-1,-1,-1,-1,-1,-1,-1,-1,-1,-1],"split_conditions":[8.4E1,8E1,8.6E1,1E0,8.8E1,6.7E1,1E0,8.3E1,7.1E1,1E0,1.8881297E-2,5.7E1,8.1E1,8.7E1,8.9E1,-1.1725898E-2,-1.697943E-3,1.9302273E-2,-1.1364079E-2,-1.3210691E-4,-1.1508643E-2,-5.5656437E-4,-1.4453761E-2,1.0750898E-2,8.2561973E-4,1.7807862E-2,3.44831E-2,3.801298E-3,-2.0100276E-3],"split_indices":[1,1,2,9,2,4,9,6,1,9,0,4,5,1,5,0,0,0,0,0,0,0,0,0,0,0,0,0,0],"split_type":[0,0,0,0,0,0,0,0,0,0,0,0,0,0,0,0,0,0,0,0,0,0,0,0,0,0,0,0,0],"sum_hessian":[2.01E2,1.54E2,4.7E1,8.8E1,6.6E1,8E0,3.9E1,8.4E1,4E0,6.3E1,3E0,3E0,5E0,3.6E1,3E0,7.6E1,8E0,3E0,1E0,5.7E1,6E0,1E0,2E0,2E0,3E0,2.2E1,1.4E1,1E0,2E0],"tree_param":{"num_deleted":"0","num_feature":"13","num_nodes":"29","size_leaf_vector":"1"}},{"base_weights":[1.6005597E-3,-1.293938E-1,3.3480373E-1,-1.4519875E-1,2.609539E-1,4.4560954E-1,4.787187E-2,-1.8870635E-1,-5.787778E-2,3.1529847E-1,-2.6922228E-4,2.826358E-1,6.590645E-1,-1.7387117E-1,1.846291E-1,-3.7073425E-3,-1.1157966E-2,6.9212713E-3,-6.7372704E-3,1.7807866E-2,3.7965775E-3,-9.193373E-3,1.5486729E-2,8.546194E-3,3.5637747E-2,-1.3971965E-2,-3.7878037E-3,1.155138E-4,1.2635494E-2],"categories":[],"categories_nodes":[],"categories_segments":[],"categories_sizes":[],"default_left":[0,0,0,0,0,0,0,0,0,0,0,0,0,0,0,0,0,0,0,0,0,0,0,0,0,0,0,0,0],"id":7,"left_children":[1,3,5,7,9,11,13,15,17,19,-1,21,23,25,27,-1,-1,-1,-1,-1,-1,-1,-1,-1,-1,-1,-1,-1,-1],"loss_changes":[8.816516E0,9.32457E-1,1.7909102E0,5.2095556E-1,8.8541955E-2,1.2400141E0,5.476261E-1,3.5051656E-1,7.4294156E-1,2.1857679E-2,0E0,3.7299204E-1,3.2371807E-1,5.1335573E-2,1.3595265E-1,0E0,0E0,0E0,0E0,0E0,0E0,0E0,0E0,0E0,0E0,0E0,0E0,0E0,0E0],"parents":[2147483647,0,0,1,1,2,2,3,3,4,4,5,5,6,6,7,7,8,8,9,9,11,11,12,12,13,13,14,14],"right_children":[2,4,6,8,10,12,14,16,18,20,-1,22,24,26,28,-1,-1,-1,-1,-1,-1,-1,-1,-1,-1,-1,-1,-1,-1],"split_conditions":[8.3E1,8.4E1,2.7E1,8E1,8.3E1,8.6E1,7E1,2E1,4.8E1,8.5E1,-2.6922228E-4,4E1,5.2E1,1E0,8.6E1,-3.7073425E-3,-1.1157966E-2,6.9212713E-3,-6.7372704E-3,1.7807866E-2,3.7965775E-3,-9.193373E-3,1.5486729E-2,8.546194E-3,3.5637747E-2,-1.3971965E-2,-3.7878037E-3,1.155138E-4,1.2635494E-2],"split_indices":[1,5,0,1,7,1,4,0,7,5,0,8,4,11,1,0,0,0,0,0,0,0,0,0,0,0,0,0,0],"split_type":[0,0,0,0,0,0,0,0,0,0,0,0,0,0,0,0,0,0,0,0,0,0,0,0,0,0,0,0,0],"sum_hessian":[2E2,1.44E2,5.6E1,1.39E2,5E0,4E1,1.6E1,9.2E1,4.7E1,4E0,1E0,2.4E1,1.6E1,6E0,1E1,2.2E1,7E1,1.3E1,3.4E1,3E0,1E0,1E0,2.3E1,2E0,1.4E1,2E0,4E0,3E0,7E0],"tree_param":{"num_deleted":"0","num_feature":"13","num_nodes":"29","size_leaf_vector":"1"}},{"base_weights":[3.8714644E-3,-1.08938254E-1,3.7822136E-1,-1.6846627E-1,2.4489578E-2,5.053103E-1,4.2560987E-2,6.5151595E-2,-1.9036235E-1,-1.3572154E-2,2.2803856E-2,3.3934194E-1,6.9291407E-1,-1.8202591E-1,1.5059833E-1,-9.677967E-3,1.8128721E-2,-1.1796318E-2,-5.203591E-3,-4.595339E-3,4.2029927E-3,1.02268355E-2,1.9125292E-2,3.7025362E-2,1.27852755E-2,-1.3506253E-2,-1.6625723E-3,1.2898653E-2,-4.1854856E-4],"categories":[],"categories_nodes":[],"categories_segments":[],"categories_sizes":[],"default_left":[0,0,0,0,0,0,0,0,0,0,0,0,0,0,0,0,0,0,0,0,0,0,0,0,0,0,0,0,0],"id":8,"left_children":[1,3,5,7,9,11,13,15,17,19,-1,21,23,25,27,-1,-1,-1,-1,-1,-1,-1,-1,-1,-1,-1,-1,-1,-1],"loss_changes":[8.571724E0,1.243186E0,1.9834538E0,5.648565E-1,8.111114E-1,8.234987E-1,3.671056E-1,8.396449E-1,3.646891E-1,3.595321E-1,0E0,3.8137913E-2,1.2277079E-1,5.655247E-2,1.7285232E-1,0E0,0E0,0E0,0E0,0E0,0E0,0E0,0E0,0E0,0E0,0E0,0E0,0E0,0E0],"parents":[2147483647,0,0,1,1,2,2,3,3,4,4,5,5,6,6,7,7,8,8,9,9,11,11,12,12,13,13,14,14],"right_children":[2,4,6,8,10,12,14,16,18,20,-1,22,24,26,28,-1,-1,-1,-1,-1,-1,-1,-1,-1,-1,-1,-1,-1,-1],"split_conditions":[8.4E1,8.2E1,2.7E1,7.2E1,8.9E1,8.9E1,6.9E1,6.3E1,8.5E1,8.2E1,2.2803856E-2,6.5E1,1E0,8.6E1,2.8E1,-9.677967E-3,1.8128721E-2,-1.1796318E-2,-5.203591E-3,-4.595339E-3,4.2029927E-3,1.02268355E-2,1.9125292E-2,3.7025362E-2,1.27852755E-2,-1.3506253E-2,-1.6625723E-3,1.2898653E-2,-4.1854856E-4],"split_indices":[1,6,0,2,2,2,4,1,2,1,0,4,11,7,0,0,0,0,0,0,0,0,0,0,0,0,0,0,0],"split_type":[0,0,0,0,0,0,0,0,0,0,0,0,0,0,0,0,0,0,0,0,0,0,0,0,0,0,0,0,0],"sum_hessian":[2.01E2,1.55E2,4.6E1,1.07E2,4.8E1,3.3E1,1.3E1,9E0,9.8E1,4.5E1,3E0,1.9E1,1.4E1,4E0,9E0,5E0,4E0,6.3E1,3.5E1,2.5E1,2E1,6E0,1.3E1,1.2E1,2E0,2E0,2E0,5E0,4E0],"tree_param":{"num_deleted":"0","num_feature":"13","num_nodes":"29","size_leaf_vector":"1"}},{"base_weights":[-5.8816154E-3,-9.916952E-2,4.4517332E-1,-1.831957E-1,9.060798E-3,5.367129E-1,-1.0735376E-2,-2.0210952E-1,2.0902328E-1,1.4260878E-1,-6.5907285E-2,2.8898197E-1,3.0683069E-2,-7.0002556E-2,8.621693E-3,-8.508223E-3,-1.3753909E-2,1.8317008E-2,-1.0506106E-2,3.295102E-3,1.4861139E-2,-1.4009929E-2,-1.2253207E-3,1.5918314E-2,1.3476849E-3,-9.495783E-3,-4.0184023E-4],"categories":[],"categories_nodes":[],"categories_segments":[],"categories_sizes":[],"default_left":[0,0,0,0,0,0,0,0,0,0,0,0,0,0,0,0,0,0,0,0,0,0,0,0,0,0,0],"id":9,"left_children":[1,3,5,7,9,11,13,15,17,19,21,23,-1,25,-1,-1,-1,-1,-1,-1,-1,-1,-1,-1,-1,-1,-1],"loss_changes":[8.838445E0,1.5840476E0,1.508174E0,7.692447E-1,7.803104E-1,3.9453888E-1,8.806227E-2,1.7230439E-1,4.066694E-1,3.1249058E-1,4.3672562E-1,6.0714543E-2,0E0,4.305672E-2,0E0,0E0,0E0,0E0,0E0,0E0,0E0,0E0,0E0,0E0,0E0,0E0,0E0],"parents":[2147483647,0,0,1,1,2,2,3,3,4,4,5,5,6,6,7,7,8,8,9,9,10,10,11,11,13,13],"right_children":[2,4,6,8,10,12,14,16,18,20,22,24,-1,26,-1,-1,-1,-1,-1,-1,-1,-1,-1,-1,-1,-1,-1],"split_conditions":[8.5E1,8E1,2.8E1,2.8E1,2.4E1,8.8E1,3.1E1,7.8E1,7.1E1,8.2E1,6.3E1,8.3E1,3.0683069E-2,7.5E1,8.621693E-3,-8.508223E-3,-1.3753909E-2,1.8317008E-2,-1.0506106E-2,3.295102E-3,1.4861139E-2,-1.4009929E-2,-1.2253207E-3,1.5918314E-2,1.3476849E-3,-9.495783E-3,-4.0184023E-4],"split_indices":[1,1,0,0,0,2,0,8,1,1,8,7,0,6,0,0,0,0,0,0,0,0,0,0,0,0,0],"split_type":[0,0,0,0,0,0,0,0,0,0,0,0,0,0,0,0,0,0,0,0,0,0,0,0,0,0,0],"sum_hessian":[2.08E2,1.73E2,3.5E1,9.7E1,7.6E1,2.9E1,6E0,9.3E1,4E0,2.7E1,4.9E1,8E0,2.1E1,5E0,1E0,6.7E1,2.6E1,3E0,1E0,1.9E1,8E0,7E0,4.2E1,7E0,1E0,1E0,4E0],"tree_param":{"num_deleted":"0","num_feature":"13","num_nodes":"27","size_leaf_vector":"1"}},{"base_weights":[-6.979157E-3,-1.1690791E-1,3.488095E-1,-1.7163162E-1,-3.2221854E-2,7.506065E-2,4.5036152E-1,-7.5175986E-2,-2.0997018E-1,-6.1050877E-2,1.658512E-2,-1.9476414E-1,1.587472E-1,4.9434054E-1,7.0027545E-2,-4.979979E-3,1.5827704E-2,-1.3286767E-2,-6.00218E-3,-5.61438E-3,6.1319214E-3,-1.2877369E-2,-1.6036035E-4,9.471769E-3,1.7687479E-4,1.7751796E-2,2.9535178E-2,7.878018E-3,-2.042389E-3],"categories":[],"categories_nodes":[],"categories_segments":[],"categories_sizes":[],"default_left":[0,0,0,0,0,0,0,0,0,0,0,0,0,0,0,0,0,0,0,0,0,0,0,0,0,0,0,0,0],"id":10,"left_children":[1,3,5,7,9,11,13,15,17,19,-1,21,23,25,27,-1,-1,-1,-1,-1,-1,-1,-1,-1,-1,-1,-1,-1,-1],"loss_changes":[8.449731E0,7.5913477E-1,1.3839827E0,3.540125E-1,7.126951E-1,3.6962885E-1,5.8427095E-1,3.185523E-1,3.2414865E-1,5.972923E-1,0E0,4.7280252E-2,5.6487143E-2,2.3326492E-1,5.4962125E-2,0E0,0E0,0E0,0E0,0E0,0E0,0E0,0E0,0E0,0E0,0E0,0E0,0E0,0E0],"parents":[2147483647,0,0,1,1,2,2,3,3,4,4,5,5,6,6,7,7,8,8,9,9,11,11,12,12,13,13,14,14],"right_children":[2,4,6,8,10,12,14,16,18,20,-1,22,24,26,28,-1,-1,-1,-1,-1,-1,-1,-1,-1,-1,-1,-1,-1,-1],"split_conditions":[8.4E1,8E1,8.7E1,4.1E1,8.8E1,6.6E1,1E0,8.8E1,8.5E1,8.8E1,1.658512E-2,7.7E1,8.1E1,8.9E1,8.9E1,-4.979979E-3,1.5827704E-2,-1.3286767E-2,-6.00218E-3,-5.61438E-3,6.1319214E-3,-1.2877369E-2,-1.6036035E-4,9.471769E-3,1.7687479E-4,1.7751796E-2,2.9535178E-2,7.878018E-3,-2.042389E-3],"split_indices":[1,1,2,7,2,3,9,2,2,3,0,6,8,2,5,0,0,0,0,0,0,0,0,0,0,0,0,0,0],"split_type":[0,0,0,0,0,0,0,0,0,0,0,0,0,0,0,0,0,0,0,0,0,0,0,0,0,0,0,0,0],"sum_hessian":[2.14E2,1.64E2,5E1,9.9E1,6.5E1,1.4E1,3.6E1,2.9E1,7E1,6.1E1,4E0,3E0,1.1E1,3.2E1,4E0,2.8E1,1E0,4.2E1,2.8E1,4.8E1,1.3E1,2E0,1E0,9E0,2E0,1.5E1,1.7E1,2E0,2E0],"tree_param":{"num_deleted":"0","num_feature":"13","num_nodes":"29","size_leaf_vector":"1"}},{"base_weights":[1.4292141E-3,-6.909317E-2,3.9630693E-1,-1.4582153E-1,2.3479585E-2,-1.0180983E-2,4.4643095E-1,-1.6433062E-1,2.0910263E-1,-5.1309288E-2,1.2475291E-1,4.916062E-1,5.2477837E-2,-1.3944366E-3,-9.073281E-3,1.8024564E-2,-9.911299E-3,4.6598734E-3,-6.3334624E-3,1.0488204E-2,4.3776195E-4,2.0293768E-2,3.7667733E-2,-1.9742965E-3,8.2092285E-3],"categories":[],"categories_nodes":[],"categories_segments":[],"categories_sizes":[],"default_left":[0,0,0,0,0,0,0,0,0,0,0,0,0,0,0,0,0,0,0,0,0,0,0,0,0],"id":11,"left_children":[1,3,5,7,9,-1,11,13,15,17,19,21,23,-1,-1,-1,-1,-1,-1,-1,-1,-1,-1,-1,-1],"loss_changes":[5.5133824E0,1.1967205E0,9.9302435E-1,6.387392E-1,5.896081E-1,0E0,4.7251558E-1,2.006774E-1,3.7978336E-1,5.0185627E-1,3.2357967E-1,2.5523043E-1,4.7574867E-2,0E0,0E0,0E0,0E0,0E0,0E0,0E0,0E0,0E0,0E0,0E0,0E0],"parents":[2147483647,0,0,1,1,2,2,3,3,4,4,6,6,7,7,8,8,9,9,10,10,11,11,12,12],"right_children":[2,4,6,8,10,-1,12,14,16,18,20,22,24,-1,-1,-1,-1,-1,-1,-1,-1,-1,-1,-1,-1],"split_conditions":[8.8E1,8E1,7.9E1,1E0,8.6E1,-1.0180983E-2,1E0,2.9E1,7.1E1,4.6E1,8.3E1,9.2E1,9E1,-1.3944366E-3,-9.073281E-3,1.8024564E-2,-9.911299E-3,4.6598734E-3,-6.3334624E-3,1.0488204E-2,4.3776195E-4,2.0293768E-2,3.7667733E-2,-1.9742965E-3,8.2092285E-3],"split_indices":[2,1,1,9,2,0,9,7,1,7,6,2,1,0,0,0,0,0,0,0,0,0,0,0,0],"split_type":[0,0,0,0,0,0,0,0,0,0,0,0,0,0,0,0,0,0,0,0,0,0,0,0,0],"sum_hessian":[1.96E2,1.67E2,2.9E1,9.1E1,7.6E1,2E0,2.7E1,8.7E1,4E0,4.4E1,3.2E1,2.4E1,3E0,1E1,7.7E1,3E0,1E0,1.5E1,2.9E1,1.8E1,1.4E1,2E1,4E0,2E0,1E0],"tree_param":{"num_deleted":"0","num_feature":"13","num_nodes":"25","size_leaf_vector":"1"}},{"base_weights":[1.6346545E-4,-8.387553E-2,3.53554E-1,-1.5929352E-1,1.3198608E-3,1.0204783E-1,4.367614E-1,-6.5618865E-2,-2.1260206E-1,-1.5365814E-1,4.379254E-2,1.8671656E-1,4.6957493E-2,4.727363E-1,9.3734264E-2,-1.0294708E-2,-1.660817E-3,5.4039E-3,-1.133712E-2,-1.2218714E-2,-1.052785E-3,1.4098057E-3,1.705618E-2,8.149624E-4,1.1904462E-2,3.7042045E-3,6.549359E-5,2.6896095E-2,1.449194E-2,-1.8938541E-3,7.5115203E-3],"categories":[],"categories_nodes":[],"categories_segments":[],"categories_sizes":[],"default_left":[0,0,0,0,0,0,0,0,0,0,0,0,0,0,0,0,0,0,0,0,0,0,0,0,0,0,0,0,0,0,0],"id":12,"left_children":[1,3,5,7,9,11,13,15,17,19,21,23,25,27,29,-1,-1,-1,-1,-1,-1,-1,-1,-1,-1,-1,-1,-1,-1,-1,-1],"loss_changes":[6.028769E0,1.0539536E0,7.715893E-1,4.2049766E-1,5.2015084E-1,4.254099E-2,3.1355906E-1,1.4315498E-1,2.739048E-1,1.993506E-1,2.7789438E-1,3.1138495E-2,9.809077E-3,1.5406847E-1,3.5432428E-2,0E0,0E0,0E0,0E0,0E0,0E0,0E0,0E0,0E0,0E0,0E0,0E0,0E0,0E0,0E0,0E0],"parents":[2147483647,0,0,1,1,2,2,3,3,4,4,5,5,6,6,7,7,8,8,9,9,10,10,11,11,12,12,13,13,14,14],"right_children":[2,4,6,8,10,12,14,16,18,20,22,24,26,28,30,-1,-1,-1,-1,-1,-1,-1,-1,-1,-1,-1,-1,-1,-1,-1,-1],"split_conditions":[8.5E1,8.5E1,8.7E1,4.7E1,7.8E1,7.4E1,1E0,2.2E1,5.2E1,6.9E1,8.9E1,6.2E1,1E0,1E0,6.9E1,-1.0294708E-2,-1.660817E-3,5.4039E-3,-1.133712E-2,-1.2218714E-2,-1.052785E-3,1.4098057E-3,1.705618E-2,8.149624E-4,1.1904462E-2,3.7042045E-3,6.549359E-5,2.6896095E-2,1.449194E-2,-1.8938541E-3,7.5115203E-3],"split_indices":[1,2,2,7,1,4,9,7,6,8,2,4,9,11,4,0,0,0,0,0,0,0,0,0,0,0,0,0,0,0,0],"split_type":[0,0,0,0,0,0,0,0,0,0,0,0,0,0,0,0,0,0,0,0,0,0,0,0,0,0,0,0,0,0,0],"sum_hessian":[2.01E2,1.63E2,3.8E1,8.6E1,7.7E1,1E1,2.8E1,3.2E1,5.4E1,1.6E1,6.1E1,3E0,7E0,2.5E1,3E0,5E0,2.7E1,2E0,5.2E1,9E0,7E0,5.9E1,2E0,1E0,2E0,4E0,3E0,1.7E1,8E0,1E0,2E0],"tree_param":{"num_deleted":"0","num_feature":"13","num_nodes":"31","size_leaf_vector":"1"}},{"base_weights":[-1.4925629E-2,-9.37512E-2,2.5516468E-1,-1.3867153E-1,-3.3352096E-2,3.4526032E-1,5.195605E-2,-4.0759087E-2,-1.9120708E-1,-1.7352073E-1,1.777565E-2,2.4089012E-1,4.9043894E-1,-1.917777E-1,1.2887096E-1,-6.9448403E-3,2.1643376E-3,4.400902E-3,-1.069707E-2,-1.1133137E-2,2.7071E-3,4.7756657E-3,-5.1803254E-3,9.516716E-4,1.3224172E-2,2.712344E-2,1.25381E-2,-1.2458897E-2,-4.8942567E-4,4.6863555E-4,9.372425E-3],"categories":[],"categories_nodes":[],"categories_segments":[],"categories_sizes":[],"default_left":[0,0,0,0,0,0,0,0,0,0,0,0,0,0,0,0,0,0,0,0,0,0,0,0,0,0,0,0,0,0,0],"id":13,"left_children":[1,3,5,7,9,11,13,15,17,19,21,23,25,27,29,-1,-1,-1,-1,-1,-1,-1,-1,-1,-1,-1,-1,-1,-1,-1,-1],"loss_changes":[4.2393465E0,4.1319978E-1,8.059313E-1,4.448682E-1,4.8324037E-1,3.515799E-1,3.05916E-1,2.6995054E-1,3.8066626E-1,2.1343583E-1,4.8169407E-1,9.965289E-2,1.3613939E-2,3.93458E-2,8.224206E-2,0E0,0E0,0E0,0E0,0E0,0E0,0E0,0E0,0E0,0E0,0E0,0E0,0E0,0E0,0E0,0E0],"parents":[2147483647,0,0,1,1,2,2,3,3,4,4,5,5,6,6,7,7,8,8,9,9,10,10,11,11,12,12,13,13,14,14],"right_children":[2,4,6,8,10,12,14,16,18,20,22,24,26,28,30,-1,-1,-1,-1,-1,-1,-1,-1,-1,-1,-1,-1,-1,-1,-1,-1],"split_conditions":[8.4E1,8.5E1,2.7E1,5E1,7.8E1,8.9E1,7.7E1,3.6E1,7E1,7.7E1,2.3E1,6E1,1E0,8.6E1,7.3E1,-6.9448403E-3,2.1643376E-3,4.400902E-3,-1.069707E-2,-1.1133137E-2,2.7071E-3,4.7756657E-3,-5.1803254E-3,9.516716E-4,1.3224172E-2,2.712344E-2,1.25381E-2,-1.2458897E-2,-4.8942567E-4,4.6863555E-4,9.372425E-3],"split_indices":[1,2,0,7,1,2,6,7,2,8,0,8,11,7,8,0,0,0,0,0,0,0,0,0,0,0,0,0,0,0,0],"split_type":[0,0,0,0,0,0,0,0,0,0,0,0,0,0,0,0,0,0,0,0,0,0,0,0,0,0,0,0,0,0,0],"sum_hessian":[1.97E2,1.53E2,4.4E1,8.7E1,6.6E1,3E1,1.4E1,3.1E1,5.6E1,1.7E1,4.9E1,1.9E1,1.1E1,3E0,1.1E1,1.4E1,1.7E1,4E0,5.2E1,1.4E1,3E0,3E1,1.9E1,2E0,1.7E1,8E0,3E0,2E0,1E0,4E0,7E0],"tree_param":{"num_deleted":"0","num_feature":"13","num_nodes":"31","size_leaf_vector":"1"}},{"base_weights":[1.4857822E-2,-9.42659E-2,2.674135E-1,-1.0552101E-1,2.2847518E-1,3.2211086E-1,-7.832845E-2,-1.1249678E-1,1.5105963E-1,-1.0712433E-2,1.9635916E-2,2.3340908E-1,5.25348E-1,-7.873949E-3,-3.321702E-2,-7.247699E-3,-2.4332379E-3,1.5002442E-2,-7.3976996E-3,3.6504224E-3,1.4404379E-2,2.928032E-2,1.0661793E-2,-2.1318279E-3,5.8250426E-4],"categories":[],"categories_nodes":[],"categories_segments":[],"categories_sizes":[],"default_left":[0,0,0,0,0,0,0,0,0,0,0,0,0,0,0,0,0,0,0,0,0,0,0,0,0],"id":14,"left_children":[1,3,5,7,9,11,13,15,17,-1,-1,19,21,-1,23,-1,-1,-1,-1,-1,-1,-1,-1,-1,-1],"loss_changes":[5.4820514E0,5.290245E-1,1.1599011E0,2.5862312E-1,4.477111E-1,8.148093E-1,2.6904352E-2,2.6642466E-1,2.2259262E-1,0E0,0E0,3.122449E-1,1.5723848E-1,0E0,3.4551094E-3,0E0,0E0,0E0,0E0,0E0,0E0,0E0,0E0,0E0,0E0],"parents":[2147483647,0,0,1,1,2,2,3,3,4,4,5,5,6,6,7,7,8,8,11,11,12,12,14,14],"right_children":[2,4,6,8,10,12,14,16,18,-1,-1,20,22,-1,24,-1,-1,-1,-1,-1,-1,-1,-1,-1,-1],"split_conditions":[8.3E1,8.9E1,2.8E1,2.9E1,7.7E1,8.7E1,7.5E1,8E1,7.1E1,-1.0712433E-2,1.9635916E-2,6.5E1,1E0,-7.873949E-3,7.5E1,-7.247699E-3,-2.4332379E-3,1.5002442E-2,-7.3976996E-3,3.6504224E-3,1.4404379E-2,2.928032E-2,1.0661793E-2,-2.1318279E-3,5.8250426E-4],"split_indices":[1,2,0,0,1,1,6,1,1,0,0,4,11,0,3,0,0,0,0,0,0,0,0,0,0],"split_type":[0,0,0,0,0,0,0,0,0,0,0,0,0,0,0,0,0,0,0,0,0,0,0,0,0],"sum_hessian":[1.97E2,1.38E2,5.9E1,1.34E2,4E0,5.1E1,8E0,1.31E2,3E0,1E0,3E0,3.7E1,1.4E1,2E0,6E0,8.6E1,4.5E1,2E0,1E0,1E1,2.7E1,1.1E1,3E0,5E0,1E0],"tree_param":{"num_deleted":"0","num_feature":"13","num_nodes":"25","size_leaf_vector":"1"}},{"base_weights":[1.0714435E-3,-4.3401655E-2,4.531551E-1,-1.23375565E-1,3.0359864E-2,-1.0444641E-2,2.5219345E-2,-1.4375074E-1,1.7022038E-2,-2.4090448E-2,1.6345671E-1,-1.5004008E-2,-6.4039566E-3,1.1666188E-3,-7.987568E-3,1.3012908E-2,6.349961E-4],"categories":[],"categories_nodes":[],"categories_segments":[],"categories_sizes":[],"default_left":[0,0,0,0,0,0,0,0,0,0,0,0,0,0,0,0,0],"id":15,"left_children":[1,3,5,7,9,-1,-1,11,-1,13,15,-1,-1,-1,-1,-1,-1],"loss_changes":[4.0407796E0,1.0832622E0,7.158854E-1,8.8056827E-1,6.9966555E-1,0E0,0E0,1.698103E-1,0E0,4.4763362E-1,4.0531212E-1,0E0,0E0,0E0,0E0,0E0,0E0],"parents":[2147483647,0,0,1,1,2,2,3,3,4,4,7,7,9,9,10,10],"right_children":[2,4,6,8,10,-1,-1,12,-1,14,16,-1,-1,-1,-1,-1,-1],"split_conditions":[8.9E1,8E1,7.7E1,2.8E1,8.7E1,-1.0444641E-2,2.5219345E-2,6.6E1,1.7022038E-2,2.7E1,8.3E1,-1.5004008E-2,-6.4039566E-3,1.1666188E-3,-7.987568E-3,1.3012908E-2,6.349961E-4],"split_indices":[2,1,1,0,2,0,0,3,0,0,6,0,0,0,0,0,0],"split_type":[0,0,0,0,0,0,0,0,0,0,0,0,0,0,0,0,0],"sum_hessian":[1.99E2,1.82E2,1.7E1,8.7E1,9.5E1,1E0,1.6E1,8.4E1,3E0,6.8E1,2.7E1,6E0,7.8E1,5.1E1,1.7E1,1.6E1,1.1E1],"tree_param":{"num_deleted":"0","num_feature":"13","num_nodes":"17","size_leaf_vector":"1"}},{"base_weights":[1.5720187E-2,-3.2635678E-2,4.3079463E-1,-8.009847E-2,1.2096735E-1,-1.0183525E-2,4.74907E-1,-9.626503E-2,2.2234236E-1,2.1713535E-1,-4.286611E-2,5.021266E-1,8.118025E-3,4.399459E-3,-5.4751257E-3,1.4142227E-2,2.3695629E-3,1.2042244E-2,-9.390068E-3,-8.008661E-3,4.7231317E-3,2.5799884E-2,7.004738E-3],"categories":[],"categories_nodes":[],"categories_segments":[],"categories_sizes":[],"default_left":[0,0,0,0,0,0,0,0,0,0,0,0,0,0,0,0,0,0,0,0,0,0,0],"id":16,"left_children":[1,3,5,7,9,-1,11,13,15,17,19,21,-1,-1,-1,-1,-1,-1,-1,-1,-1,-1,-1],"loss_changes":[3.8476746E0,1.263643E0,6.564801E-1,6.668085E-1,6.5528476E-1,0E0,8.011484E-2,3.1695688E-1,6.0690135E-2,2.9485345E-1,2.7288455E-1,1.3081551E-2,0E0,0E0,0E0,0E0,0E0,0E0,0E0,0E0,0E0,0E0,0E0],"parents":[2147483647,0,0,1,1,2,2,3,3,4,4,6,6,7,7,8,8,9,9,10,10,11,11],"right_children":[2,4,6,8,10,-1,12,14,16,18,20,22,-1,-1,-1,-1,-1,-1,-1,-1,-1,-1,-1],"split_conditions":[8.9E1,8.3E1,7.7E1,8.4E1,2.7E1,-1.0183525E-2,1E0,7.2E1,8.2E1,9.5E1,7.5E1,2.7E1,8.118025E-3,4.399459E-3,-5.4751257E-3,1.4142227E-2,2.3695629E-3,1.2042244E-2,-9.390068E-3,-8.008661E-3,4.7231317E-3,2.5799884E-2,7.004738E-3],"split_indices":[2,1,1,5,0,0,11,2,1,3,3,0,0,0,0,0,0,0,0,0,0,0,0],"split_type":[0,0,0,0,0,0,0,0,0,0,0,0,0,0,0,0,0,0,0,0,0,0,0],"sum_hessian":[1.9E2,1.71E2,1.9E1,1.31E2,4E1,1E0,1.8E1,1.25E2,6E0,2.5E1,1.5E1,1.6E1,2E0,8E0,1.17E2,4E0,2E0,2.4E1,1E0,8E0,7E0,1.5E1,1E0],"tree_param":{"num_deleted":"0","num_feature":"13","num_nodes":"23","size_leaf_vector":"1"}},{"base_weights":[1.0386247E-3,-6.732868E-2,2.3719297E-1,-1.1019955E-1,3.0791344E-2,3.410219E-1,3.4178495E-2,-1.2027355E-1,1.37882875E-2,8.661426E-2,-1.8441486E-1,2.4565294E-1,4.5565686E-1,-8.436155E-2,1.3574982E-1,-4.4379546E-3,-8.061528E-3,1.8810173E-3,1.1001758E-2,-2.6518505E-3,-1.0531485E-2,5.779961E-3,1.5052326E-2,2.5147105E-2,7.3076882E-3,-1.1439991E-2,9.5891955E-5,1.2123299E-2,2.0990372E-3],"categories":[],"categories_nodes":[],"categories_segments":[],"categories_sizes":[],"default_left":[0,0,0,0,0,0,0,0,0,0,0,0,0,0,0,0,0,0,0,0,0,0,0,0,0,0,0,0,0],"id":17,"left_children":[1,3,5,7,9,11,13,15,-1,17,19,21,23,25,27,-1,-1,-1,-1,-1,-1,-1,-1,-1,-1,-1,-1,-1,-1],"loss_changes":[3.164291E0,6.427799E-1,9.158108E-1,4.453181E-1,5.8060455E-1,2.0511222E-1,2.0409638E-1,1.19926095E-1,0E0,2.4012104E-1,2.3269296E-2,9.4873786E-2,1.0211229E-1,1.0013517E-1,7.988118E-2,0E0,0E0,0E0,0E0,0E0,0E0,0E0,0E0,0E0,0E0,0E0,0E0,0E0,0E0],"parents":[2147483647,0,0,1,1,2,2,3,3,4,4,5,5,6,6,7,7,9,9,10,10,11,11,12,12,13,13,14,14],"right_children":[2,4,6,8,10,12,14,16,-1,18,20,22,24,26,28,-1,-1,-1,-1,-1,-1,-1,-1,-1,-1,-1,-1,-1,-1],"split_conditions":[8.4E1,8.1E1,2.7E1,2.9E1,2.7E1,8.7E1,7.5E1,2.3E1,1.37882875E-2,8.5E1,7.5E1,8.2E1,9.3E1,7.7E1,6.8E1,-4.4379546E-3,-8.061528E-3,1.8810173E-3,1.1001758E-2,-2.6518505E-3,-1.0531485E-2,5.779961E-3,1.5052326E-2,2.5147105E-2,7.3076882E-3,-1.1439991E-2,9.5891955E-5,1.2123299E-2,2.0990372E-3],"split_indices":[1,1,0,0,0,1,8,0,0,6,6,5,3,6,3,0,0,0,0,0,0,0,0,0,0,0,0,0,0],"split_type":[0,0,0,0,0,0,0,0,0,0,0,0,0,0,0,0,0,0,0,0,0,0,0,0,0,0,0,0,0],"sum_hessian":[1.94E2,1.51E2,4.3E1,1.05E2,4.6E1,2.8E1,1.5E1,1.03E2,2E0,3.7E1,9E0,1.7E1,1.1E1,7E0,8E0,6E1,4.3E1,2.8E1,9E0,2E0,7E0,6E0,1.1E1,9E0,2E0,2E0,5E0,3E0,5E0],"tree_param":{"num_deleted":"0","num_feature":"13","num_nodes":"29","size_leaf_vector":"1"}},{"base_weights":[5.284052E-3,-6.9396466E-2,2.8787735E-1,-9.456026E-2,6.926384E-2,3.363663E-1,-2.6196071E-3,1.269741E-1,-1.0584848E-1,-4.3823652E-2,1.9542725E-1,2.7924383E-1,2.8771892E-2,2.7399063E-2,-2.5888763E-3,-4.8645735E-3,1.5974808E-2,-1.513916E-3,-7.09913E-3,-6.0223504E-3,1.3863881E-2,1.2750308E-2,6.2589644E-4,6.589317E-3,1.5838059E-2,2.5599005E-4,2.912903E-3],"categories":[],"categories_nodes":[],"categories_segments":[],"categories_sizes":[],"default_left":[0,0,0,0,0,0,0,0,0,0,0,0,0,0,0,0,0,0,0,0,0,0,0,0,0,0,0],"id":18,"left_children":[1,3,5,7,9,11,13,15,17,19,21,23,-1,25,-1,-1,-1,-1,-1,-1,-1,-1,-1,-1,-1,-1,-1],"loss_changes":[4.240821E0,5.613353E-1,5.924885E-1,3.5103834E-1,3.6525196E-1,3.309412E-1,1.1748242E-2,3.3331668E-1,3.4795642E-1,3.7785122E-1,1.2757829E-1,1.2975383E-1,0E0,3.1393082E-3,0E0,0E0,0E0,0E0,0E0,0E0,0E0,0E0,0E0,0E0,0E0,0E0,0E0],"parents":[2147483647,0,0,1,1,2,2,3,3,4,4,5,5,6,6,7,7,8,8,9,9,10,10,11,11,13,13],"right_children":[2,4,6,8,10,12,14,16,18,20,22,24,-1,26,-1,-1,-1,-1,-1,-1,-1,-1,-1,-1,-1,-1,-1],"split_conditions":[8.5E1,8.7E1,2.8E1,7.1E1,6.9E1,9.2E1,3E1,2.5E1,4.5E1,8.9E1,8.3E1,7.9E1,2.8771892E-2,8.7E1,-2.5888763E-3,-4.8645735E-3,1.5974808E-2,-1.513916E-3,-7.09913E-3,-6.0223504E-3,1.3863881E-2,1.2750308E-2,6.2589644E-4,6.589317E-3,1.5838059E-2,2.5599005E-4,2.912903E-3],"split_indices":[1,2,0,2,7,2,0,0,7,2,6,6,0,1,0,0,0,0,0,0,0,0,0,0,0,0,0],"split_type":[0,0,0,0,0,0,0,0,0,0,0,0,0,0,0,0,0,0,0,0,0,0,0,0,0,0,0],"sum_hessian":[1.99E2,1.58E2,4.1E1,1.34E2,2.4E1,3.5E1,6E0,6E0,1.28E2,1.3E1,1.1E1,3E1,5E0,4E0,2E0,3E0,3E0,4.2E1,8.6E1,1.1E1,2E0,8E0,3E0,7E0,2.3E1,3E0,1E0],"tree_param":{"num_deleted":"0","num_feature":"13","num_nodes":"27","size_leaf_vector":"1"}},{"base_weights":[6.2832427E-3,-4.9649093E-2,3.2675254E-1,-8.2674615E-2,9.196368E-2,-1.0136748E-2,3.5200158E-1,-9.043964E-2,1.0197306E-2,2.0668998E-1,1.6563416E-2,1.2690435E-1,4.05205E-1,-5.2163424E-3,2.5024049E-3,5.6166174E-3,1.954558E-2,-4.480076E-3,7.1152495E-3,1.0384865E-2,-2.5026004E-3,1.677365E-2,2.9457284E-2],"categories":[],"categories_nodes":[],"categories_segments":[],"categories_sizes":[],"default_left":[0,0,0,0,0,0,0,0,0,0,0,0,0,0,0,0,0,0,0,0,0,0,0],"id":19,"left_children":[1,3,5,7,9,-1,11,13,-1,15,17,19,21,-1,-1,-1,-1,-1,-1,-1,-1,-1,-1],"loss_changes":[3.619067E0,8.1201863E-1,4.7243452E-1,3.3003128E-1,2.820395E-1,0E0,2.9587984E-1,2.7250588E-1,0E0,1.8206334E-1,2.93087E-1,1.1047343E-1,9.736824E-2,0E0,0E0,0E0,0E0,0E0,0E0,0E0,0E0,0E0,0E0],"parents":[2147483647,0,0,1,1,2,2,3,3,4,4,6,6,7,7,9,9,10,10,11,11,12,12],"right_children":[2,4,6,8,10,-1,12,14,-1,16,18,20,22,-1,-1,-1,-1,-1,-1,-1,-1,-1,-1],"split_conditions":[8.8E1,8.3E1,7.7E1,8.5E1,8.2E1,-1.0136748E-2,7.3E1,9E1,1.0197306E-2,8.1E1,8.5E1,8.9E1,9.2E1,-5.2163424E-3,2.5024049E-3,5.6166174E-3,1.954558E-2,-4.480076E-3,7.1152495E-3,1.0384865E-2,-2.5026004E-3,1.677365E-2,2.9457284E-2],"split_indices":[2,1,1,5,5,0,3,3,0,5,1,5,2,0,0,0,0,0,0,0,0,0,0],"split_type":[0,0,0,0,0,0,0,0,0,0,0,0,0,0,0,0,0,0,0,0,0,0,0],"sum_hessian":[2E2,1.71E2,2.9E1,1.39E2,3.2E1,1E0,2.8E1,1.36E2,3E0,1.2E1,2E1,6E0,2.2E1,1.24E2,1.2E1,9E0,3E0,1.1E1,9E0,4E0,2E0,1.8E1,4E0],"tree_param":{"num_deleted":"0","num_feature":"13","num_nodes":"23","size_leaf_vector":"1"}},{"base_weights":[1.7248973E-2,-4.973288E-2,2.0083098E-1,-8.2916476E-2,5.4749463E-2,-8.937588E-3,2.341071E-1,1.4877053E-1,-9.260583E-2,1.3869193E-2,2.279693E-1,1.56736E-1,3.3717364E-1,-3.8088323E-3,1.1202574E-2,-6.428954E-3,-1.7453063E-3,6.867899E-3,-1.0631218E-3,5.075455E-4,1.3129028E-2,1.0923186E-2,1.2321732E-3,1.9445969E-2,7.1494738E-3],"categories":[],"categories_nodes":[],"categories_segments":[],"categories_sizes":[],"default_left":[0,0,0,0,0,0,0,0,0,0,0,0,0,0,0,0,0,0,0,0,0,0,0,0,0],"id":20,"left_children":[1,3,5,7,9,-1,11,13,15,17,19,21,23,-1,-1,-1,-1,-1,-1,-1,-1,-1,-1,-1,-1],"loss_changes":[2.530804E0,5.280717E-1,7.365544E-1,2.7194023E-1,2.588454E-1,0E0,3.538456E-1,1.0173868E-1,2.2590852E-1,1.374098E-1,5.010733E-2,2.4738306E-1,1.5540075E-1,0E0,0E0,0E0,0E0,0E0,0E0,0E0,0E0,0E0,0E0,0E0,0E0],"parents":[2147483647,0,0,1,1,2,2,3,3,4,4,6,6,7,7,8,8,9,9,10,10,11,11,12,12],"right_children":[2,4,6,8,10,-1,12,14,16,18,20,22,24,-1,-1,-1,-1,-1,-1,-1,-1,-1,-1,-1,-1],"split_conditions":[8.7E1,8.3E1,7.3E1,7.1E1,8.5E1,-8.937588E-3,8.9E1,5E1,8.5E1,7.3E1,8.4E1,8.3E1,1E0,-3.8088323E-3,1.1202574E-2,-6.428954E-3,-1.7453063E-3,6.867899E-3,-1.0631218E-3,5.075455E-4,1.3129028E-2,1.0923186E-2,1.2321732E-3,1.9445969E-2,7.1494738E-3],"split_indices":[2,6,5,2,4,0,2,6,2,3,6,6,11,0,0,0,0,0,0,0,0,0,0,0,0],"split_type":[0,0,0,0,0,0,0,0,0,0,0,0,0,0,0,0,0,0,0,0,0,0,0,0,0],"sum_hessian":[2.04E2,1.5E2,5.4E1,1.14E2,3.6E1,4E0,5E1,4E0,1.1E2,3E1,6E0,3E1,2E1,1E0,3E0,6.7E1,4.3E1,6E0,2.4E1,1E0,5E0,2E1,1E1,1.5E1,5E0],"tree_param":{"num_deleted":"0","num_feature":"13","num_nodes":"25","size_leaf_vector":"1"}},{"base_weights":[1.2628959E-2,-4.598073E-2,1.8234448E-1,-2.1675982E-1,-2.7519457E-2,-1.4952768E-1,2.3099813E-1,-1.2446619E-2,-1.581637E-2,-1.0404959E-1,6.885487E-3,3.000927E-3,-9.722757E-3,-9.672928E-2,2.4890727E-1,1.4826298E-3,-2.6688576E-3,-5.809952E-4,-8.1369905E-3,-1.6203771E-3,6.30868E-3,8.0919266E-4,-8.063889E-3,8.253979E-3,1.5880533E-2],"categories":[],"categories_nodes":[],"categories_segments":[],"categories_sizes":[],"default_left":[0,0,0,0,0,0,0,0,0,0,0,0,0,0,0,0,0,0,0,0,0,0,0,0,0],"id":21,"left_children":[1,3,5,7,9,11,13,-1,15,17,19,-1,-1,21,23,-1,-1,-1,-1,-1,-1,-1,-1,-1,-1],"loss_changes":[1.9380974E0,4.5119074E-1,8.418802E-1,8.657086E-2,3.482744E-1,7.757154E-2,2.823267E-1,0E0,6.7063207E-3,2.205224E-1,4.3531057E-1,0E0,0E0,2.4475213E-2,1.8945718E-1,0E0,0E0,0E0,0E0,0E0,0E0,0E0,0E0,0E0,0E0],"parents":[2147483647,0,0,1,1,2,2,3,3,4,4,5,5,6,6,8,8,9,9,10,10,13,13,14,14],"right_children":[2,4,6,8,10,12,14,-1,16,18,20,-1,-1,22,24,-1,-1,-1,-1,-1,-1,-1,-1,-1,-1],"split_conditions":[8.7E1,3.6E1,7.3E1,8.7E1,6.5E1,2.1E1,5.9E1,-1.2446619E-2,8.4E1,4.5E1,8.3E1,3.000927E-3,-9.722757E-3,8.8E1,8.4E1,1.4826298E-3,-2.6688576E-3,-5.809952E-4,-8.1369905E-3,-1.6203771E-3,6.30868E-3,8.0919266E-4,-8.063889E-3,8.253979E-3,1.5880533E-2],"split_indices":[2,4,5,3,8,4,3,0,2,7,6,0,0,2,5,0,0,0,0,0,0,0,0,0,0],"split_type":[0,0,0,0,0,0,0,0,0,0,0,0,0,0,0,0,0,0,0,0,0,0,0,0,0],"sum_hessian":[1.93E2,1.44E2,4.9E1,1.3E1,1.31E2,6E0,4.3E1,1.1E1,2E0,4E1,9.1E1,1E0,5E0,2E0,4.1E1,1E0,1E0,1.6E1,2.4E1,6.9E1,2.2E1,1E0,1E0,2E1,2.1E1],"tree_param":{"num_deleted":"0","num_feature":"13","num_nodes":"25","size_leaf_vector":"1"}},{"base_weights":[1.2281994E-2,-3.304653E-2,2.7779993E-1,-8.022626E-2,4.490596E-2,4.0421247E-2,3.4828815E-1,8.758736E-2,-9.604715E-2,-5.6399386E-2,9.568634E-2,-1.1190567E-1,1.1036229E-2,2.7981076E-1,2.6942236E-2,-2.4289812E-3,1.5199137E-2,-1.730565E-3,-6.5511973E-3,9.487152E-3,-5.910266E-3,9.601076E-3,1.217549E-3,-6.3684466E-3,-1.251316E-3,1.4546352E-2,1.992941E-3],"categories":[],"categories_nodes":[],"categories_segments":[],"categories_sizes":[],"default_left":[0,0,0,0,0,0,0,0,0,0,0,0,0,0,0,0,0,0,0,0,0,0,0,0,0,0,0],"id":22,"left_children":[1,3,5,7,9,11,13,15,17,19,21,23,-1,25,-1,-1,-1,-1,-1,-1,-1,-1,-1,-1,-1,-1,-1],"loss_changes":[2.4764655E0,6.508915E-1,4.8789382E-1,3.004582E-1,3.5006636E-1,2.4442075E-1,1.4934802E-1,3.0942643E-1,2.1249688E-1,3.7232906E-1,3.045688E-1,3.5296157E-3,0E0,3.9084077E-2,0E0,0E0,0E0,0E0,0E0,0E0,0E0,0E0,0E0,0E0,0E0,0E0,0E0],"parents":[2147483647,0,0,1,1,2,2,3,3,4,4,5,5,6,6,7,7,8,8,9,9,10,10,11,11,13,13],"right_children":[2,4,6,8,10,12,14,16,18,20,22,24,-1,26,-1,-1,-1,-1,-1,-1,-1,-1,-1,-1,-1,-1,-1],"split_conditions":[8.8E1,8E1,7.3E1,7.2E1,8.5E1,9E1,9.1E1,6.5E1,4.5E1,6.2E1,8.2E1,7.1E1,1.1036229E-2,8.8E1,2.6942236E-2,-2.4289812E-3,1.5199137E-2,-1.730565E-3,-6.5511973E-3,9.487152E-3,-5.910266E-3,9.601076E-3,1.217549E-3,-6.3684466E-3,-1.251316E-3,1.4546352E-2,1.992941E-3],"split_indices":[2,5,3,2,2,2,2,1,7,7,5,3,0,5,0,0,0,0,0,0,0,0,0,0,0,0,0],"split_type":[0,0,0,0,0,0,0,0,0,0,0,0,0,0,0,0,0,0,0,0,0,0,0,0,0,0,0],"sum_hessian":[2.04E2,1.75E2,2.9E1,1.09E2,6.6E1,7E0,2.2E1,9E0,1E2,2.2E1,4.4E1,4E0,3E0,1.8E1,4E0,6E0,3E0,3.7E1,6.3E1,4E0,1.8E1,1.8E1,2.6E1,3E0,1E0,1.7E1,1E0],"tree_param":{"num_deleted":"0","num_feature":"13","num_nodes":"27","size_leaf_vector":"1"}},{"base_weights":[1.4711164E-2,-4.9118437E-2,1.9174318E-1,-8.59334E-2,6.563898E-2,-1.4130084E-1,2.2861095E-1,-1.4828831E-1,-4.311805E-2,-1.4879052E-1,1.6208187E-1,-9.713936E-3,3.089714E-3,1.888452E-1,4.8212466E-1,1.430289E-3,-9.314098E-3,3.1310597E-3,-3.323878E-3,-9.698668E-3,2.5707881E-3,-3.6837102E-3,9.801794E-3,-4.6296758E-3,1.0222583E-2,1.0705599E-2,2.813015E-2],"categories":[],"categories_nodes":[],"categories_segments":[],"categories_sizes":[],"default_left":[0,0,0,0,0,0,0,0,0,0,0,0,0,0,0,0,0,0,0,0,0,0,0,0,0,0,0],"id":23,"left_children":[1,3,5,7,9,11,13,15,17,19,21,-1,-1,23,25,-1,-1,-1,-1,-1,-1,-1,-1,-1,-1,-1,-1],"loss_changes":[2.3032944E0,6.393592E-1,6.9534683E-1,2.9795724E-1,7.8928363E-1,7.65626E-2,4.0293026E-1,3.1448793E-1,1.7459407E-1,1.18523955E-1,2.2256929E-1,0E0,0E0,2.1219039E-1,8.955121E-3,0E0,0E0,0E0,0E0,0E0,0E0,0E0,0E0,0E0,0E0,0E0,0E0],"parents":[2147483647,0,0,1,1,2,2,3,3,4,4,5,5,6,6,7,7,8,8,9,9,10,10,13,13,14,14],"right_children":[2,4,6,8,10,12,14,16,18,20,22,-1,-1,24,26,-1,-1,-1,-1,-1,-1,-1,-1,-1,-1,-1,-1],"split_conditions":[8.7E1,8.3E1,7.3E1,7.4E1,6.4E1,2.1E1,9.2E1,2.1E1,7.6E1,5.2E1,2.3E1,-9.713936E-3,3.089714E-3,5.9E1,7.6E1,1.430289E-3,-9.314098E-3,3.1310597E-3,-3.323878E-3,-9.698668E-3,2.5707881E-3,-3.6837102E-3,9.801794E-3,-4.6296758E-3,1.0222583E-2,1.0705599E-2,2.813015E-2],"split_indices":[2,6,5,3,8,0,2,0,3,7,0,0,0,3,3,0,0,0,0,0,0,0,0,0,0,0,0],"split_type":[0,0,0,0,0,0,0,0,0,0,0,0,0,0,0,0,0,0,0,0,0,0,0,0,0,0,0],"sum_hessian":[2.02E2,1.49E2,5.3E1,1.13E2,3.6E1,5E0,4.8E1,4.5E1,6.8E1,1.1E1,2.5E1,4E0,1E0,4.3E1,5E0,8E0,3.7E1,1.2E1,5.6E1,9E0,2E0,3E0,2.2E1,2E0,4.1E1,2E0,3E0],"tree_param":{"num_deleted":"0","num_feature":"13","num_nodes":"27","size_leaf_vector":"1"}},{"base_weights":[-1.2081788E-2,-7.149936E-2,1.8218134E-1,-8.3811566E-2,4.454875E-2,1.3954405E-1,4.6449122E-1,-2.8934637E-2,-1.0983485E-1,-6.345156E-2,1.604805E-1,-3.5465453E-2,1.794202E-1,1.03487335E-2,2.707529E-2,-5.4738927E-3,3.5614537E-3,-2.5352314E-3,-7.0227757E-3,1.3810566E-4,-9.83998E-3,-3.781557E-3,1.0250759E-2,-8.242297E-3,2.834956E-3,9.878314E-3,1.3700676E-3],"categories":[],"categories_nodes":[],"categories_segments":[],"categories_sizes":[],"default_left":[0,0,0,0,0,0,0,0,0,0,0,0,0,0,0,0,0,0,0,0,0,0,0,0,0,0,0],"id":24,"left_children":[1,3,5,7,9,11,13,15,17,19,21,23,25,-1,-1,-1,-1,-1,-1,-1,-1,-1,-1,-1,-1,-1,-1],"loss_changes":[2.4138956E0,2.3234308E-1,5.2499235E-1,2.0389318E-1,2.1051335E-1,3.1342626E-1,6.917119E-3,3.9503834E-1,1.7031777E-1,8.000875E-2,9.962678E-2,1.1666529E-1,9.3894124E-2,0E0,0E0,0E0,0E0,0E0,0E0,0E0,0E0,0E0,0E0,0E0,0E0,0E0,0E0],"parents":[2147483647,0,0,1,1,2,2,3,3,4,4,5,5,6,6,7,7,8,8,9,9,10,10,11,11,12,12],"right_children":[2,4,6,8,10,12,14,16,18,20,22,24,26,-1,-1,-1,-1,-1,-1,-1,-1,-1,-1,-1,-1,-1,-1],"split_conditions":[8.4E1,8.9E1,9.2E1,2.2E1,8.5E1,8.6E1,8.9E1,7.8E1,5E1,2.6E1,7.7E1,7.7E1,2.8E1,1.03487335E-2,2.707529E-2,-5.4738927E-3,3.5614537E-3,-2.5352314E-3,-7.0227757E-3,1.3810566E-4,-9.83998E-3,-3.781557E-3,1.0250759E-2,-8.242297E-3,2.834956E-3,9.878314E-3,1.3700676E-3],"split_indices":[1,3,2,0,2,2,1,1,7,0,1,6,0,0,0,0,0,0,0,0,0,0,0,0,0,0,0],"split_type":[0,0,0,0,0,0,0,0,0,0,0,0,0,0,0,0,0,0,0,0,0,0,0,0,0,0,0],"sum_hessian":[2.07E2,1.59E2,4.8E1,1.44E2,1.5E1,4.3E1,5E0,4.7E1,9.7E1,8E0,7E0,8E0,3.5E1,2E0,3E0,2.6E1,2.1E1,3.4E1,6.3E1,6E0,2E0,1E0,6E0,3E0,5E0,3.1E1,4E0],"tree_param":{"num_deleted":"0","num_feature":"13","num_nodes":"27","size_leaf_vector":"1"}},{"base_weights":[8.542254E-3,-3.748584E-2,2.5567633E-1,-7.645402E-2,1.0455987E-2,1.032877E-1,3.3058047E-1,7.295394E-2,-8.9167766E-2,-1.8472156E-1,3.8591053E-2,-7.450485E-3,1.3977017E-1,2.6607287E-1,4.4750404E-1,-6.187763E-3,1.5030098E-2,-5.788371E-3,-4.480735E-4,-4.4221114E-3,-1.170837E-2,3.9194254E-3,-1.964768E-3,8.331318E-3,-3.2197952E-3,1.3682201E-2,3.812647E-3,1.0003758E-2,2.6059985E-2],"categories":[],"categories_nodes":[],"categories_segments":[],"categories_sizes":[],"default_left":[0,0,0,0,0,0,0,0,0,0,0,0,0,0,0,0,0,0,0,0,0,0,0,0,0,0,0,0,0],"id":25,"left_children":[1,3,5,7,9,11,13,15,17,19,21,-1,23,25,27,-1,-1,-1,-1,-1,-1,-1,-1,-1,-1,-1,-1,-1,-1],"loss_changes":[2.3187318E0,3.221308E-1,3.311205E-1,1.86961E-1,4.354526E-1,1.3128029E-1,3.9322853E-2,3.9544475E-1,1.8670696E-1,2.689588E-2,2.1695825E-1,0E0,7.104443E-2,2.1282434E-3,5.127549E-3,0E0,0E0,0E0,0E0,0E0,0E0,0E0,0E0,0E0,0E0,0E0,0E0,0E0,0E0],"parents":[2147483647,0,0,1,1,2,2,3,3,4,4,5,5,6,6,7,7,8,8,9,9,10,10,12,12,13,13,14,14],"right_children":[2,4,6,8,10,12,14,16,18,20,22,-1,24,26,28,-1,-1,-1,-1,-1,-1,-1,-1,-1,-1,-1,-1,-1,-1],"split_conditions":[8.8E1,8.5E1,7.1E1,7.1E1,7.1E1,2E1,9.2E1,2.5E1,7.7E1,2E1,8.2E1,-7.450485E-3,2.8E1,9.5E1,7.6E1,-6.187763E-3,1.5030098E-2,-5.788371E-3,-4.480735E-4,-4.4221114E-3,-1.170837E-2,3.9194254E-3,-1.964768E-3,8.331318E-3,-3.2197952E-3,1.3682201E-2,3.812647E-3,1.0003758E-2,2.6059985E-2],"split_indices":[2,2,4,2,5,0,2,0,4,0,5,0,0,3,3,0,0,0,0,0,0,0,0,0,0,0,0,0,0],"split_type":[0,0,0,0,0,0,0,0,0,0,0,0,0,0,0,0,0,0,0,0,0,0,0,0,0,0,0,0,0],"sum_hessian":[2.02E2,1.71E2,3.1E1,9.4E1,7.7E1,1.1E1,2E1,7E0,8.7E1,9E0,6.8E1,1E0,1E1,1.5E1,5E0,4E0,3E0,6.5E1,2.2E1,4E0,5E0,4.5E1,2.3E1,9E0,1E0,1.4E1,1E0,2E0,3E0],"tree_param":{"num_deleted":"0","num_feature":"13","num_nodes":"29","size_leaf_vector":"1"}},{"base_weights":[1.5762484E-2,-1.7827084E-2,2.2791262E-1,-7.163922E-2,3.3741627E-2,2.7461922E-1,-3.2520294E-2,-1.0661008E-2,-4.5081005E-2,6.951022E-2,-1.197337E-1,9.9340715E-2,3.3063865E-1,1.776441E-2,-3.5982449E-3,9.28051E-3,-3.069032E-3,1.587103E-3,7.695207E-3,-9.187139E-3,-2.827654E-3,7.854295E-3,8.380175E-4,1.1226082E-2,2.2507994E-2,2.1076203E-5,1.3112546E-3],"categories":[],"categories_nodes":[],"categories_segments":[],"categories_sizes":[],"default_left":[0,0,0,0,0,0,0,0,0,0,0,0,0,0,0,0,0,0,0,0,0,0,0,0,0,0,0],"id":26,"left_children":[1,3,5,7,9,11,13,-1,15,17,19,21,23,25,-1,-1,-1,-1,-1,-1,-1,-1,-1,-1,-1,-1,-1],"loss_changes":[1.4078913E0,4.7694606E-1,3.3735704E-1,3.062393E-1,4.9140722E-1,1.9299114E-1,1.1195715E-2,0E0,2.8212595E-1,2.2460777E-1,5.8359027E-2,3.074751E-2,1.1454439E-1,4.2914343E-4,0E0,0E0,0E0,0E0,0E0,0E0,0E0,0E0,0E0,0E0,0E0,0E0,0E0],"parents":[2147483647,0,0,1,1,2,2,3,3,4,4,5,5,6,6,8,8,9,9,10,10,11,11,12,12,13,13],"right_children":[2,4,6,8,10,12,14,-1,16,18,20,22,24,26,-1,-1,-1,-1,-1,-1,-1,-1,-1,-1,-1,-1,-1],"split_conditions":[8.6E1,8E1,2.8E1,3.6E1,2.7E1,7.9E1,2.9E1,-1.0661008E-2,4.5E1,7.9E1,7E1,4.1E1,8.2E1,8.7E1,-3.5982449E-3,9.28051E-3,-3.069032E-3,1.587103E-3,7.695207E-3,-9.187139E-3,-2.827654E-3,7.854295E-3,8.380175E-4,1.1226082E-2,2.2507994E-2,2.1076203E-5,1.3112546E-3],"split_indices":[1,1,0,4,0,6,0,0,4,4,3,4,4,1,0,0,0,0,0,0,0,0,0,0,0,0,0],"split_type":[0,0,0,0,0,0,0,0,0,0,0,0,0,0,0,0,0,0,0,0,0,0,0,0,0,0,0],"sum_hessian":[1.96E2,1.7E2,2.6E1,8.3E1,8.7E1,2.2E1,4E0,1.2E1,7.1E1,7.1E1,1.6E1,6E0,1.6E1,2E0,2E0,4E0,6.7E1,5E1,2.1E1,7E0,9E0,3E0,3E0,1E1,6E0,1E0,1E0],"tree_param":{"num_deleted":"0","num_feature":"13","num_nodes":"27","size_leaf_vector":"1"}},{"base_weights":[1.2719173E-3,-6.6634476E-2,1.1530353E-1,-7.5672865E-2,1.1962629E-2,1.719881E-1,-3.6802117E-2,-8.258373E-2,1.1990389E-2,2.7293682E-2,2.059956E-1,-1.1593716E-1,6.975365E-2,-1.555751E-3,-5.222764E-3,7.269319E-3,-3.8913866E-3,1.8272094E-2,7.866728E-3,-8.306917E-3,-1.1938096E-4,-1.4227105E-3,6.998396E-3],"categories":[],"categories_nodes":[],"categories_segments":[],"categories_sizes":[],"default_left":[0,0,0,0,0,0,0,0,0,0,0,0,0,0,0,0,0,0,0,0,0,0,0],"id":27,"left_children":[1,3,5,7,-1,9,11,13,-1,15,17,19,21,-1,-1,-1,-1,-1,-1,-1,-1,-1,-1],"loss_changes":[1.6183261E0,3.80284E-1,6.78849E-1,2.988755E-1,0E0,2.7485728E-1,1.935975E-1,1.3858813E-1,0E0,1.6028394E-1,2.9940927E-1,7.3707506E-2,7.293861E-2,0E0,0E0,0E0,0E0,0E0,0E0,0E0,0E0,0E0,0E0],"parents":[2147483647,0,0,1,1,2,2,3,3,5,5,6,6,7,7,9,9,10,10,11,11,12,12],"right_children":[2,4,6,8,-1,10,12,14,-1,16,18,20,22,-1,-1,-1,-1,-1,-1,-1,-1,-1,-1],"split_conditions":[8.2E1,8.4E1,2.7E1,2.9E1,1.1962629E-2,4E1,8.6E1,4.7E1,1.1990389E-2,3.5E1,5.9E1,7.7E1,7.3E1,-1.555751E-3,-5.222764E-3,7.269319E-3,-3.8913866E-3,1.8272094E-2,7.866728E-3,-8.306917E-3,-1.1938096E-4,-1.4227105E-3,6.998396E-3],"split_indices":[1,5,0,0,0,7,1,7,0,7,7,8,8,0,0,0,0,0,0,0,0,0,0],"split_type":[0,0,0,0,0,0,0,0,0,0,0,0,0,0,0,0,0,0,0,0,0,0,0],"sum_hessian":[2.07E2,1.3E2,7.7E1,1.27E2,3E0,5.6E1,2.1E1,1.25E2,2E0,1.1E1,4.5E1,1.2E1,9E0,3.8E1,8.7E1,5E0,6E0,9E0,3.6E1,8E0,4E0,4E0,5E0],"tree_param":{"num_deleted":"0","num_feature":"13","num_nodes":"23","size_leaf_vector":"1"}},{"base_weights":[-9.113598E-3,-5.5720888E-2,2.0475632E-1,-1.15345106E-1,-2.7262444E-2,2.4430731E-1,-3.371652E-2,-4.234028E-2,-2.017951E-1,-5.945441E-2,6.803341E-2,2.0849656E-1,2.5452105E-2,-6.7335763E-3,5.0428867E-2,-6.087619E-3,8.6825684E-4,-1.0391103E-2,-1.57938E-3,1.1308098E-2,-3.2773507E-3,5.1033837E-3,-9.469562E-4,1.2164814E-2,4.3367627E-3,3.9141974E-4,4.4557573E-3],"categories":[],"categories_nodes":[],"categories_segments":[],"categories_sizes":[],"default_left":[0,0,0,0,0,0,0,0,0,0,0,0,0,0,0,0,0,0,0,0,0,0,0,0,0,0,0],"id":28,"left_children":[1,3,5,7,9,11,13,15,17,19,21,23,-1,-1,25,-1,-1,-1,-1,-1,-1,-1,-1,-1,-1,-1,-1],"loss_changes":[2.0049887E0,2.7682954E-1,3.4778333E-1,3.2595313E-1,3.5070193E-1,1.8775725E-1,5.7760723E-2,1.4435421E-1,1.805532E-2,1.6273668E-1,8.777441E-2,1.0177827E-1,0E0,0E0,5.8945855E-3,0E0,0E0,0E0,0E0,0E0,0E0,0E0,0E0,0E0,0E0,0E0,0E0],"parents":[2147483647,0,0,1,1,2,2,3,3,4,4,5,5,6,6,7,7,8,8,9,9,10,10,11,11,14,14],"right_children":[2,4,6,8,10,12,14,16,18,20,22,24,-1,-1,26,-1,-1,-1,-1,-1,-1,-1,-1,-1,-1,-1,-1],"split_conditions":[8.5E1,6.7E1,2.8E1,2.3E1,8.1E1,9E1,6.9E1,7.7E1,8.4E1,5.2E1,8.3E1,8.4E1,2.5452105E-2,-6.7335763E-3,3E1,-6.087619E-3,8.6825684E-4,-1.0391103E-2,-1.57938E-3,1.1308098E-2,-3.2773507E-3,5.1033837E-3,-9.469562E-4,1.2164814E-2,4.3367627E-3,3.9141974E-4,4.4557573E-3],"split_indices":[1,8,0,0,6,1,4,1,4,6,5,3,0,0,0,0,0,0,0,0,0,0,0,0,0,0,0],"split_type":[0,0,0,0,0,0,0,0,0,0,0,0,0,0,0,0,0,0,0,0,0,0,0,0,0,0,0],"sum_hessian":[1.99E2,1.64E2,3.5E1,5.2E1,1.12E2,3E1,5E0,2.9E1,2.3E1,8.4E1,2.8E1,2.8E1,2E0,2E0,3E0,1.2E1,1.7E1,2.2E1,1E0,1E0,8.3E1,2E1,8E0,2.1E1,7E0,2E0,1E0],"tree_param":{"num_deleted":"0","num_feature":"13","num_nodes":"27","size_leaf_vector":"1"}},{"base_weights":[7.6577323E-4,-5.680905E-2,1.2724431E-1,-6.7023195E-2,1.2648606E-1,1.6796413E-1,-6.999191E-2,-2.7300662E-3,-9.6095555E-2,2.1242687E-1,-1.1877489E-2,1.4644915E-1,2.4603717E-2,-1.162889E-1,1.8081665E-2,-1.8642402E-3,9.26214E-3,4.5336722E-3,-5.26508E-3,1.21671045E-2,6.7338947E-4,4.9237646E-3,9.812042E-3,-1.9188643E-3,-7.768021E-3,-1.04208E-3,4.344368E-3],"categories":[],"categories_nodes":[],"categories_segments":[],"categories_sizes":[],"default_left":[0,0,0,0,0,0,0,0,0,0,0,0,0,0,0,0,0,0,0,0,0,0,0,0,0,0,0],"id":29,"left_children":[1,3,5,7,9,11,13,15,17,19,-1,21,-1,23,25,-1,-1,-1,-1,-1,-1,-1,-1,-1,-1,-1,-1],"loss_changes":[1.5364443E0,2.799468E-1,5.418303E-1,2.5768083E-1,3.0074623E-1,3.114636E-1,5.1033195E-2,2.9270223E-1,1.7289132E-1,3.977874E-2,0E0,1.0727632E-1,0E0,1.8390693E-2,1.5201583E-2,0E0,0E0,0E0,0E0,0E0,0E0,0E0,0E0,0E0,0E0,0E0,0E0],"parents":[2147483647,0,0,1,1,2,2,3,3,4,4,5,5,6,6,7,7,8,8,9,9,11,11,13,13,14,14],"right_children":[2,4,6,8,10,12,14,16,18,20,-1,22,-1,24,26,-1,-1,-1,-1,-1,-1,-1,-1,-1,-1,-1,-1],"split_conditions":[8.3E1,8.4E1,2.8E1,4.5E1,7.8E1,9E1,8.3E1,4.2E1,7E1,8.3E1,-1.1877489E-2,7.9E1,2.4603717E-2,8.6E1,3E1,-1.8642402E-3,9.26214E-3,4.5336722E-3,-5.26508E-3,1.21671045E-2,6.7338947E-4,4.9237646E-3,9.812042E-3,-1.9188643E-3,-7.768021E-3,-1.04208E-3,4.344368E-3],"split_indices":[1,5,0,7,4,1,4,7,2,7,0,4,0,5,0,0,0,0,0,0,0,0,0,0,0,0,0],"split_type":[0,0,0,0,0,0,0,0,0,0,0,0,0,0,0,0,0,0,0,0,0,0,0,0,0,0,0],"sum_hessian":[2.09E2,1.44E2,6.5E1,1.37E2,7E0,5.4E1,1.1E1,4.3E1,9.4E1,6E0,1E0,5.2E1,2E0,7E0,4E0,3.7E1,6E0,4E0,9E1,5E0,1E0,2.8E1,2.4E1,3E0,4E0,3E0,1E0],"tree_param":{"num_deleted":"0","num_feature":"13","num_nodes":"27","size_leaf_vector":"1"}},{"base_weights":[4.2930986E-3,-4.172727E-2,1.6840458E-1,-6.6300035E-2,1.378616E-2,2.0572343E-1,-2.5245667E-2,-2.1548161E-2,-1.052793E-1,1.6260062E-1,-1.9216677E-2,1.7141667E-1,2.2294998E-2,-6.250191E-3,2.8841019E-2,-4.213937E-3,1.0146082E-3,-6.094749E-3,7.475305E-3,-5.613804E-3,1.2858813E-2,-4.0828846E-3,4.7229133E-3,5.965104E-3,1.1473752E-2,2.550335E-3,-2.0496845E-3],"categories":[],"categories_nodes":[],"categories_segments":[],"categories_sizes":[],"default_left":[0,0,0,0,0,0,0,0,0,0,0,0,0,0,0,0,0,0,0,0,0,0,0,0,0,0,0],"id":30,"left_children":[1,3,5,7,9,11,13,15,17,19,21,23,-1,-1,25,-1,-1,-1,-1,-1,-1,-1,-1,-1,-1,-1,-1],"loss_changes":[1.5175214E0,2.1508059E-1,3.2317293E-1,1.8787053E-1,2.4377833E-1,2.2843325E-1,4.676994E-2,1.381929E-1,2.63763E-1,2.628445E-1,2.9873037E-1,7.5496614E-2,0E0,0E0,1.1378558E-2,0E0,0E0,0E0,0E0,0E0,0E0,0E0,0E0,0E0,0E0,0E0,0E0],"parents":[2147483647,0,0,1,1,2,2,3,3,4,4,5,5,6,6,7,7,8,8,9,9,10,10,11,11,14,14],"right_children":[2,4,6,8,10,12,14,16,18,20,22,24,-1,-1,26,-1,-1,-1,-1,-1,-1,-1,-1,-1,-1,-1,-1],"split_conditions":[8.4E1,8E1,1E0,4.7E1,6.2E1,8.9E1,6.9E1,7.2E1,1E0,3.7E1,1E0,8.4E1,2.2294998E-2,-6.250191E-3,8.9E1,-4.213937E-3,1.0146082E-3,-6.094749E-3,7.475305E-3,-5.613804E-3,1.2858813E-2,-4.0828846E-3,4.7229133E-3,5.965104E-3,1.1473752E-2,2.550335E-3,-2.0496845E-3],"split_indices":[1,5,9,7,7,1,4,5,9,7,10,5,0,0,5,0,0,0,0,0,0,0,0,0,0,0,0],"split_type":[0,0,0,0,0,0,0,0,0,0,0,0,0,0,0,0,0,0,0,0,0,0,0,0,0,0,0],"sum_hessian":[1.99E2,1.56E2,4.3E1,1.08E2,4.8E1,3.6E1,7E0,5.1E1,5.7E1,8E0,4E1,3.3E1,3E0,2E0,5E0,2E1,3.1E1,5.4E1,3E0,2E0,6E0,2.6E1,1.4E1,1.9E1,1.4E1,4E0,1E0],"tree_param":{"num_deleted":"0","num_feature":"13","num_nodes":"27","size_leaf_vector":"1"}},{"base_weights":[9.0596955E-3,-3.3265233E-2,1.5475285E-1,-6.805178E-2,1.707467E-2,1.21141255E-1,3.6424193E-1,1.05078295E-2,-1.0391989E-1,4.8139896E-2,-9.382744E-2,1.5101564E-1,-2.4701834E-2,7.8122774E-3,2.1458937E-2,-1.5279532E-3,6.6197515E-3,-9.3931835E-3,-3.1669308E-3,-1.2695619E-3,6.273787E-3,-6.241996E-3,8.508682E-3,8.726495E-3,1.6012874E-3,-6.567812E-3,4.6498436E-4],"categories":[],"categories_nodes":[],"categories_segments":[],"categories_sizes":[],"default_left":[0,0,0,0,0,0,0,0,0,0,0,0,0,0,0,0,0,0,0,0,0,0,0,0,0,0,0],"id":31,"left_children":[1,3,5,7,9,11,13,15,17,19,21,23,25,-1,-1,-1,-1,-1,-1,-1,-1,-1,-1,-1,-1,-1,-1],"loss_changes":[1.2877699E0,2.8484845E-1,2.868148E-1,2.7159938E-1,2.3534517E-1,1.8672323E-1,1.3982415E-2,1.5921725E-1,2.12933E-1,3.0457532E-1,1.4405438E-1,9.23391E-2,3.023287E-2,0E0,0E0,0E0,0E0,0E0,0E0,0E0,0E0,0E0,0E0,0E0,0E0,0E0,0E0],"parents":[2147483647,0,0,1,1,2,2,3,3,4,4,5,5,6,6,7,7,8,8,9,9,10,10,11,11,12,12],"right_children":[2,4,6,8,10,12,14,16,18,20,22,24,26,-1,-1,-1,-1,-1,-1,-1,-1,-1,-1,-1,-1,-1,-1],"split_conditions":[8.4E1,8.5E1,9.2E1,4.5E1,2.4E1,2.8E1,8.9E1,8.5E1,6.7E1,7.3E1,2.6E1,8.6E1,5.8E1,7.8122774E-3,2.1458937E-2,-1.5279532E-3,6.6197515E-3,-9.3931835E-3,-3.1669308E-3,-1.2695619E-3,6.273787E-3,-6.241996E-3,8.508682E-3,8.726495E-3,1.6012874E-3,-6.567812E-3,4.6498436E-4],"split_indices":[1,2,2,7,0,0,1,3,8,8,0,3,3,0,0,0,0,0,0,0,0,0,0,0,0,0,0],"split_type":[0,0,0,0,0,0,0,0,0,0,0,0,0,0,0,0,0,0,0,0,0,0,0,0,0,0,0],"sum_hessian":[2.07E2,1.61E2,4.6E1,9.5E1,6.6E1,4.1E1,5E0,3E1,6.5E1,5.2E1,1.4E1,3.4E1,7E0,2E0,3E0,2.3E1,7E0,2E1,4.5E1,2.7E1,2.5E1,1.3E1,1E0,2.8E1,6E0,1E0,6E0],"tree_param":{"num_deleted":"0","num_feature":"13","num_nodes":"27","size_leaf_vector":"1"}},{"base_weights":[1.0311202E-3,-4.9190037E-2,7.073777E-2,-6.754028E-2,1.5574665E-1,-8.466698E-2,1.0800071E-1,2.9585868E-2,-1.0828863E-1,9.7535454E-2,1.6991187E-2,-1.0311337E-2,-3.1400386E-2,1.3414131E-1,-5.964298E-2,3.3174076E-3,-4.6794894E-3,-6.339762E-3,-7.9760555E-4,-2.1941185E-3,6.034899E-3,-8.073966E-3,3.4651323E-4,4.9702725E-3,1.2058653E-2,-4.238023E-3,4.1603567E-3],"categories":[],"categories_nodes":[],"categories_segments":[],"categories_sizes":[],"default_left":[0,0,0,0,0,0,0,0,0,0,0,0,0,0,0,0,0,0,0,0,0,0,0,0,0,0,0],"id":32,"left_children":[1,3,5,7,9,11,13,15,17,19,-1,-1,21,23,25,-1,-1,-1,-1,-1,-1,-1,-1,-1,-1,-1,-1],"loss_changes":[7.1063083E-1,4.5427454E-1,5.013654E-1,4.345964E-1,7.4008614E-2,1.0360066E-1,3.103798E-1,1.556407E-1,1.2955761E-1,3.477686E-2,0E0,0E0,6.593722E-2,1.9909656E-1,4.2933013E-2,0E0,0E0,0E0,0E0,0E0,0E0,0E0,0E0,0E0,0E0,0E0,0E0],"parents":[2147483647,0,0,1,1,2,2,3,3,4,4,5,5,6,6,7,7,8,8,9,9,12,12,13,13,14,14],"right_children":[2,4,6,8,10,12,14,16,18,20,-1,-1,22,24,26,-1,-1,-1,-1,-1,-1,-1,-1,-1,-1,-1,-1],"split_conditions":[8E1,8.6E1,7.7E1,3.9E1,8.9E1,6.6E1,2.8E1,8E1,8.8E1,5.4E1,1.6991187E-2,-1.0311337E-2,3E1,8.7E1,3.1E1,3.3174076E-3,-4.6794894E-3,-6.339762E-3,-7.9760555E-4,-2.1941185E-3,6.034899E-3,-8.073966E-3,3.4651323E-4,4.9702725E-3,1.2058653E-2,-4.238023E-3,4.1603567E-3],"split_indices":[5,8,6,7,3,3,0,8,3,3,0,0,4,5,0,0,0,0,0,0,0,0,0,0,0,0,0],"split_type":[0,0,0,0,0,0,0,0,0,0,0,0,0,0,0,0,0,0,0,0,0,0,0,0,0,0,0],"sum_hessian":[2.01E2,1.17E2,8.4E1,1.08E2,9E0,1.6E1,6.8E1,3.2E1,7.6E1,8E0,1E0,4E0,1.2E1,5.9E1,9E0,2.5E1,7E0,6.3E1,1.3E1,1E0,7E0,2E0,1E1,4.6E1,1.3E1,8E0,1E0],"tree_param":{"num_deleted":"0","num_feature":"13","num_nodes":"27","size_leaf_vector":"1"}},{"base_weights":[5.6673903E-3,-4.913777E-2,9.231268E-2,1.532917E-1,-5.709653E-2,-1.2868153E-1,1.2620577E-1,-1.9869804E-3,1.0574222E-2,-8.198497E-2,1.4686465E-2,-1.8814744E-1,4.630502E-3,8.7757714E-2,2.4808013E-1,-5.22455E-3,-9.644814E-4,-8.709968E-3,5.423091E-3,-2.4617196E-3,-9.967864E-3,2.4576099E-3,6.8827095E-3,1.3551026E-2,-2.4006367E-3],"categories":[],"categories_nodes":[],"categories_segments":[],"categories_sizes":[],"default_left":[0,0,0,0,0,0,0,0,0,0,0,0,0,0,0,0,0,0,0,0,0,0,0,0,0],"id":33,"left_children":[1,3,5,7,9,11,13,-1,-1,15,17,19,-1,21,23,-1,-1,-1,-1,-1,-1,-1,-1,-1,-1],"loss_changes":[9.6850365E-1,2.1013829E-1,6.079645E-1,6.45694E-2,2.1737862E-1,1.6217667E-1,3.0155146E-1,0E0,0E0,1.24976575E-1,5.857046E-1,4.1995347E-3,0E0,9.7253084E-2,1.2169212E-1,0E0,0E0,0E0,0E0,0E0,0E0,0E0,0E0,0E0,0E0],"parents":[2147483647,0,0,1,1,2,2,3,3,4,4,5,5,6,6,9,9,10,10,11,11,13,13,14,14],"right_children":[2,4,6,8,10,12,14,-1,-1,16,18,20,-1,22,24,-1,-1,-1,-1,-1,-1,-1,-1,-1,-1],"split_conditions":[8.6E1,7.1E1,7.8E1,5E1,8.2E1,7.3E1,8.9E1,-1.9869804E-3,1.0574222E-2,8.2E1,6.1E1,1.9E1,4.630502E-3,7.6E1,2.7E1,-5.22455E-3,-9.644814E-4,-8.709968E-3,5.423091E-3,-2.4617196E-3,-9.967864E-3,2.4576099E-3,6.8827095E-3,1.3551026E-2,-2.4006367E-3],"split_indices":[2,2,1,6,6,4,2,0,0,8,8,0,0,8,0,0,0,0,0,0,0,0,0,0,0],"split_type":[0,0,0,0,0,0,0,0,0,0,0,0,0,0,0,0,0,0,0,0,0,0,0,0,0],"sum_hessian":[2.02E2,1.24E2,7.8E1,4E0,1.2E2,1E1,6.8E1,1E0,3E0,8.9E1,3.1E1,8E0,2E0,5.3E1,1.5E1,6.5E1,2.4E1,1E1,2.1E1,1E0,7E0,3.1E1,2.2E1,1.4E1,1E0],"tree_param":{"num_deleted":"0","num_feature":"13","num_nodes":"25","size_leaf_vector":"1"}},{"base_weights":[4.5192344E-3,-3.0432096E-2,1.22662686E-1,1.2211499E-2,-6.5863706E-2,6.558807E-2,1.8453893E-1,-1.5232547E-2,1.5298812E-1,-1.4436805E-1,-3.366573E-2,1.0765505E-1,-1.5628121E-3,2.2270775E-1,1.0223389E-2,3.1519853E-4,-5.7828384E-3,2.0654951E-3,1.2889068E-2,-8.217017E-3,8.374167E-3,-3.827427E-3,6.094592E-3,8.260981E-3,3.3234681E-3,-1.2802124E-3,3.5541218E-3,8.946788E-3,1.655879E-2,3.7226994E-3,-2.8707504E-3],"categories":[],"categories_nodes":[],"categories_segments":[],"categories_sizes":[],"default_left":[0,0,0,0,0,0,0,0,0,0,0,0,0,0,0,0,0,0,0,0,0,0,0,0,0,0,0,0,0,0,0],"id":34,"left_children":[1,3,5,7,9,11,13,15,17,19,21,23,25,27,29,-1,-1,-1,-1,-1,-1,-1,-1,-1,-1,-1,-1,-1,-1,-1,-1],"loss_changes":[8.502334E-1,2.4104238E-1,1.5387988E-1,2.8436443E-1,2.1504796E-1,7.361394E-2,1.440984E-1,1.3482194E-1,1.2978855E-1,1.8323386E-1,4.295876E-1,2.6951343E-2,2.1031467E-2,2.6202321E-2,2.599705E-2,0E0,0E0,0E0,0E0,0E0,0E0,0E0,0E0,0E0,0E0,0E0,0E0,0E0,0E0,0E0,0E0],"parents":[2147483647,0,0,1,1,2,2,3,3,4,4,5,5,6,6,7,7,8,8,9,9,10,10,11,11,12,12,13,13,14,14],"right_children":[2,4,6,8,10,12,14,16,18,20,22,24,26,28,30,-1,-1,-1,-1,-1,-1,-1,-1,-1,-1,-1,-1,-1,-1,-1,-1],"split_conditions":[8.4E1,2.3E1,8.6E1,8.1E1,6.7E1,2.6E1,2.8E1,8.7E1,6.5E1,2.9E1,8.3E1,8.1E1,8.7E1,8.3E1,8.9E1,3.1519853E-4,-5.7828384E-3,2.0654951E-3,1.2889068E-2,-8.217017E-3,8.374167E-3,-3.827427E-3,6.094592E-3,8.260981E-3,3.3234681E-3,-1.2802124E-3,3.5541218E-3,8.946788E-3,1.655879E-2,3.7226994E-3,-2.8707504E-3],"split_indices":[1,0,5,1,8,0,0,2,4,0,6,5,2,4,5,0,0,0,0,0,0,0,0,0,0,0,0,0,0,0,0],"split_type":[0,0,0,0,0,0,0,0,0,0,0,0,0,0,0,0,0,0,0,0,0,0,0,0,0,0,0,0,0,0,0],"sum_hessian":[2.04E2,1.58E2,4.6E1,7.2E1,8.6E1,2.5E1,2.1E1,6.1E1,1.1E1,2.4E1,6.2E1,1.5E1,1E1,1.7E1,4E0,5.1E1,1E1,6E0,5E0,2.3E1,1E0,4.9E1,1.3E1,5E0,1E1,8E0,2E0,1.4E1,3E0,2E0,2E0],"tree_param":{"num_deleted":"0","num_feature":"13","num_nodes":"31","size_leaf_vector":"1"}},{"base_weights":[1.7630481E-3,-1.7265089E-2,1.8393978E-1,-5.395634E-2,2.0019092E-2,2.3351157E-1,-6.03323E-2,1.0794163E-2,-5.9293956E-2,-1.24033995E-1,4.782139E-2,2.7228567E-1,1.6070175E-1,-8.24585E-3,1.4750798E-3,-5.925425E-3,-1.8761369E-3,2.9469968E-3,-7.0656775E-3,1.3967491E-2,1.7330054E-3,1.4310241E-2,4.0233135E-3,1.0161734E-2,1.103433E-3],"categories":[],"categories_nodes":[],"categories_segments":[],"categories_sizes":[],"default_left":[0,0,0,0,0,0,0,0,0,0,0,0,0,0,0,0,0,0,0,0,0,0,0,0,0],"id":35,"left_children":[1,3,5,7,9,11,13,-1,15,17,19,21,23,-1,-1,-1,-1,-1,-1,-1,-1,-1,-1,-1,-1],"loss_changes":[6.964725E-1,2.5005674E-1,2.4415928E-1,1.4530817E-1,3.7038714E-1,1.4134049E-3,4.2446315E-2,0E0,1.1286795E-1,5.575466E-2,2.24953E-1,9.998083E-4,4.268664E-2,0E0,0E0,0E0,0E0,0E0,0E0,0E0,0E0,0E0,0E0,0E0,0E0],"parents":[2147483647,0,0,1,1,2,2,3,3,4,4,5,5,6,6,8,8,9,9,10,10,11,11,12,12],"right_children":[2,4,6,8,10,12,14,-1,16,18,20,22,24,-1,-1,-1,-1,-1,-1,-1,-1,-1,-1,-1,-1],"split_conditions":[8.9E1,8.5E1,1E0,5.2E1,7.3E1,8.7E1,2E1,1.0794163E-2,5.3E1,2.1E1,6.2E1,2.7E1,2.4E1,-8.24585E-3,1.4750798E-3,-5.925425E-3,-1.8761369E-3,2.9469968E-3,-7.0656775E-3,1.3967491E-2,1.7330054E-3,1.4310241E-2,4.0233135E-3,1.0161734E-2,1.103433E-3],"split_indices":[2,2,11,6,5,6,0,0,4,4,6,0,0,0,0,0,0,0,0,0,0,0,0,0,0],"split_type":[0,0,0,0,0,0,0,0,0,0,0,0,0,0,0,0,0,0,0,0,0,0,0,0,0],"sum_hessian":[1.99E2,1.81E2,1.8E1,9.1E1,9E1,1.5E1,3E0,1E0,9E1,1.4E1,7.6E1,8E0,7E0,1E0,2E0,2.3E1,6.7E1,1E0,1.3E1,3E0,7.3E1,7E0,1E0,5E0,2E0],"tree_param":{"num_deleted":"0","num_feature":"13","num_nodes":"25","size_leaf_vector":"1"}},{"base_weights":[-2.2397228E-3,-3.443658E-2,1.306283E-1,-8.274911E-3,-2.4913259E-2,1.04789786E-1,2.071867E-2,1.2708588E-1,-3.515352E-2,-6.299324E-2,1.2638171E-1,-8.450031E-4,9.560422E-3,7.548332E-3,-2.0729743E-3,-6.151676E-3,-8.6123944E-4,7.094218E-3,4.0447238E-4],"categories":[],"categories_nodes":[],"categories_segments":[],"categories_sizes":[],"default_left":[0,0,0,0,0,0,0,0,0,0,0,0,0,0,0,0,0,0,0],"id":36,"left_children":[1,3,5,-1,7,9,-1,11,13,15,17,-1,-1,-1,-1,-1,-1,-1,-1],"loss_changes":[8.771966E-1,2.0182031E-1,2.4984002E-1,0E0,2.457267E-1,1.4562598E-1,0E0,9.555888E-2,1.7761447E-1,1.1620527E-2,6.1202884E-2,0E0,0E0,0E0,0E0,0E0,0E0,0E0,0E0],"parents":[2147483647,0,0,1,1,2,2,4,4,5,5,7,7,8,8,9,9,10,10],"right_children":[2,4,6,-1,8,10,-1,12,14,16,18,-1,-1,-1,-1,-1,-1,-1,-1],"split_conditions":[8.5E1,3.3E1,9.1E1,-8.274911E-3,6.2E1,8.6E1,2.071867E-2,6.3E1,7.2E1,6.7E1,2.8E1,-8.450031E-4,9.560422E-3,7.548332E-3,-2.0729743E-3,-6.151676E-3,-8.6123944E-4,7.094218E-3,4.0447238E-4],"split_indices":[1,4,1,0,6,2,0,1,2,4,0,0,0,0,0,0,0,0,0],"split_type":[0,0,0,0,0,0,0,0,0,0,0,0,0,0,0,0,0,0,0],"sum_hessian":[2.03E2,1.64E2,3.9E1,1E1,1.54E2,3.7E1,2E0,9E0,1.45E2,4E0,3.3E1,3E0,6E0,4E0,1.41E2,1E0,3E0,2.9E1,4E0],"tree_param":{"num_deleted":"0","num_feature":"13","num_nodes":"19","size_leaf_vector":"1"}},{"base_weights":[6.92078E-3,-1.1526947E-2,1.0876751E-1,-1.4007965E-1,-6.002451E-4,-3.9812468E-2,1.7434047E-1,-9.358276E-3,3.963089E-3,1.7255402E-1,-1.0019523E-2,-9.344101E-3,2.031517E-2,1.9609377E-1,3.2865524E-2,-8.133173E-4,1.4454976E-2,2.6306332E-4,-5.6620347E-3,3.8924457E-3,-1.4887428E-3,1.0334811E-2,3.9629938E-4,-1.9472123E-3,3.4891765E-3],"categories":[],"categories_nodes":[],"categories_segments":[],"categories_sizes":[],"default_left":[0,0,0,0,0,0,0,0,0,0,0,0,0,0,0,0,0,0,0,0,0,0,0,0,0],"id":37,"left_children":[1,3,5,7,9,11,13,-1,-1,15,17,-1,19,21,23,-1,-1,-1,-1,-1,-1,-1,-1,-1,-1],"loss_changes":[3.6762768E-1,2.3308899E-1,2.992258E-1,1.4909753E-1,2.5290108E-1,9.2225984E-2,5.818373E-2,0E0,0E0,1.8075186E-1,2.3245902E-1,0E0,2.5372874E-2,3.4272492E-2,1.332196E-2,0E0,0E0,0E0,0E0,0E0,0E0,0E0,0E0,0E0,0E0],"parents":[2147483647,0,0,1,1,2,2,3,3,4,4,5,5,6,6,9,9,10,10,12,12,13,13,14,14],"right_children":[2,4,6,8,10,12,14,-1,-1,16,18,-1,20,22,24,-1,-1,-1,-1,-1,-1,-1,-1,-1,-1],"split_conditions":[8.8E1,3.3E1,7.1E1,8E1,7.2E1,2E1,2.8E1,-9.358276E-3,3.963089E-3,6.3E1,2.7E1,-9.344101E-3,4.5E1,9.5E1,6.2E1,-8.133173E-4,1.4454976E-2,2.6306332E-4,-5.6620347E-3,3.8924457E-3,-1.4887428E-3,1.0334811E-2,3.9629938E-4,-1.9472123E-3,3.4891765E-3],"split_indices":[2,4,4,3,2,0,0,0,0,1,0,0,4,3,8,0,0,0,0,0,0,0,0,0,0],"split_type":[0,0,0,0,0,0,0,0,0,0,0,0,0,0,0,0,0,0,0,0,0,0,0,0,0],"sum_hessian":[1.94E2,1.65E2,2.9E1,1.2E1,1.53E2,9E0,2E1,1E1,2E0,7E0,1.46E2,2E0,7E0,1.7E1,3E0,3E0,4E0,1.28E2,1.8E1,3E0,4E0,1.6E1,1E0,1E0,2E0],"tree_param":{"num_deleted":"0","num_feature":"13","num_nodes":"25","size_leaf_vector":"1"}},{"base_weights":[3.5406405E-3,-3.882708E-2,9.61647E-2,-4.9186155E-2,2.0072334E-1,1.3024418E-1,-4.7550496E-2,-9.377877E-3,-4.242143E-2,1.1129284E-2,2.2852898E-3,1.1163494E-1,1.9849174E-2,-6.4264454E-2,3.825426E-3,5.5849715E-3,-2.6721642E-3,7.495824E-3,1.2442043E-4,-5.1579615E-3,-4.088243E-4],"categories":[],"categories_nodes":[],"categories_segments":[],"categories_sizes":[],"default_left":[0,0,0,0,0,0,0,0,0,0,0,0,0,0,0,0,0,0,0,0,0],"id":38,"left_children":[1,3,5,7,9,11,13,-1,15,-1,-1,17,-1,19,-1,-1,-1,-1,-1,-1,-1],"loss_changes":[8.003607E-1,3.572858E-1,3.196485E-1,1.18409574E-1,1.0160819E-2,2.138012E-1,3.1872503E-2,0E0,2.268003E-1,0E0,0E0,2.0854169E-1,0E0,2.5334865E-2,0E0,0E0,0E0,0E0,0E0,0E0,0E0],"parents":[2147483647,0,0,1,1,2,2,3,3,4,4,5,5,6,6,8,8,11,11,13,13],"right_children":[2,4,6,8,10,12,14,-1,16,-1,-1,18,-1,20,-1,-1,-1,-1,-1,-1,-1],"split_conditions":[8.3E1,8.4E1,2.8E1,5.6E1,7.6E1,9E1,3.1E1,-9.377877E-3,6.2E1,1.1129284E-2,2.2852898E-3,8.4E1,1.9849174E-2,7.1E1,3.825426E-3,5.5849715E-3,-2.6721642E-3,7.495824E-3,1.2442043E-4,-5.1579615E-3,-4.088243E-4],"split_indices":[1,5,0,6,3,1,0,0,6,0,0,3,0,3,0,0,0,0,0,0,0],"split_type":[0,0,0,0,0,0,0,0,0,0,0,0,0,0,0,0,0,0,0,0,0],"sum_hessian":[2.02E2,1.39E2,6.3E1,1.34E2,5E0,5.1E1,1.2E1,5E0,1.29E2,4E0,1E0,4.9E1,2E0,1.1E1,1E0,8E0,1.21E2,3.6E1,1.3E1,6E0,5E0],"tree_param":{"num_deleted":"0","num_feature":"13","num_nodes":"21","size_leaf_vector":"1"}},{"base_weights":[-3.9386237E-3,-2.8832868E-2,1.5036568E-1,-6.187934E-2,1.1851638E-2,2.8787762E-1,7.325607E-2,-1.6513698E-1,-4.5200225E-2,-1.450523E-2,1.346145E-1,8.857123E-3,1.9100547E-2,9.221113E-2,-2.6128134E-3,-8.643055E-3,-2.0042898E-3,1.8042267E-3,-3.2563254E-3,-4.402775E-3,1.7791465E-3,1.3529467E-2,3.338156E-3,5.0164666E-3,-7.390499E-4],"categories":[],"categories_nodes":[],"categories_segments":[],"categories_sizes":[],"default_left":[0,0,0,0,0,0,0,0,0,0,0,0,0,0,0,0,0,0,0,0,0,0,0,0,0],"id":39,"left_children":[1,3,5,7,9,11,13,15,17,19,21,-1,-1,23,-1,-1,-1,-1,-1,-1,-1,-1,-1,-1,-1],"loss_changes":[7.188152E-1,2.1719457E-1,2.5460202E-1,1.4581564E-1,2.3815468E-1,2.6144445E-2,4.7642298E-2,4.6616495E-3,1.286869E-1,2.2785711E-1,1.0187368E-1,0E0,0E0,1.5380308E-2,0E0,0E0,0E0,0E0,0E0,0E0,0E0,0E0,0E0,0E0,0E0],"parents":[2147483647,0,0,1,1,2,2,3,3,4,4,5,5,6,6,7,7,8,8,9,9,10,10,13,13],"right_children":[2,4,6,8,10,12,14,16,18,20,22,-1,-1,24,-1,-1,-1,-1,-1,-1,-1,-1,-1,-1,-1],"split_conditions":[8.8E1,8.5E1,5.8E1,6.8E1,8.1E1,8.5E1,2.9E1,8.1E1,7.3E1,6.7E1,7.1E1,8.857123E-3,1.9100547E-2,8.6E1,-2.6128134E-3,-8.643055E-3,-2.0042898E-3,1.8042267E-3,-3.2563254E-3,-4.402775E-3,1.7791465E-3,1.3529467E-2,3.338156E-3,5.0164666E-3,-7.390499E-4],"split_indices":[2,2,7,3,8,3,0,4,3,7,3,0,0,3,0,0,0,0,0,0,0,0,0,0,0],"split_type":[0,0,0,0,0,0,0,0,0,0,0,0,0,0,0,0,0,0,0,0,0,0,0,0,0],"sum_hessian":[1.85E2,1.6E2,2.5E1,8.8E1,7.2E1,8E0,1.7E1,1.1E1,7.7E1,6E1,1.2E1,5E0,3E0,1.5E1,2E0,1E1,1E0,1.5E1,6.2E1,2.4E1,3.6E1,3E0,9E0,1.4E1,1E0],"tree_param":{"num_deleted":"0","num_feature":"13","num_nodes":"25","size_leaf_vector":"1"}},{"base_weights":[-5.7573317E-5,-2.734125E-2,1.20877035E-1,1.680779E-2,-5.0388973E-2,9.598285E-2,1.8550841E-2,-2.5743587E-2,9.09789E-2,-1.0960923E-1,-2.6206702E-2,1.2414459E-1,2.325318E-2,5.919977E-4,-3.790599E-3,-8.460204E-3,6.363603E-3,-6.553163E-3,1.4082146E-3,6.928158E-3,-2.2201606E-3,-9.1040134E-4,7.2191977E-3,-2.115186E-3,4.246728E-3],"categories":[],"categories_nodes":[],"categories_segments":[],"categories_sizes":[],"default_left":[0,0,0,0,0,0,0,0,0,0,0,0,0,0,0,0,0,0,0,0,0,0,0,0,0],"id":40,"left_children":[1,3,5,7,9,11,-1,13,15,17,19,21,23,-1,-1,-1,-1,-1,-1,-1,-1,-1,-1,-1,-1],"loss_changes":[6.632131E-1,1.6772266E-1,1.947887E-1,1.8223885E-1,1.5179217E-1,6.880006E-2,0E0,7.052226E-2,2.1983504E-1,9.532094E-2,2.4001504E-1,7.465711E-2,4.8073083E-2,0E0,0E0,0E0,0E0,0E0,0E0,0E0,0E0,0E0,0E0,0E0,0E0],"parents":[2147483647,0,0,1,1,2,2,3,3,4,4,5,5,7,7,8,8,9,9,10,10,11,11,12,12],"right_children":[2,4,6,8,10,12,-1,14,16,18,20,22,24,-1,-1,-1,-1,-1,-1,-1,-1,-1,-1,-1,-1],"split_conditions":[8.5E1,4.7E1,9.1E1,8.3E1,7.2E1,8.3E1,1.8550841E-2,2.3E1,4.1E1,8.7E1,7.3E1,8.6E1,9E1,5.919977E-4,-3.790599E-3,-8.460204E-3,6.363603E-3,-6.553163E-3,1.4082146E-3,6.928158E-3,-2.2201606E-3,-9.1040134E-4,7.2191977E-3,-2.115186E-3,4.246728E-3],"split_indices":[1,7,1,6,3,7,0,0,8,2,3,2,2,0,0,0,0,0,0,0,0,0,0,0,0],"split_type":[0,0,0,0,0,0,0,0,0,0,0,0,0,0,0,0,0,0,0,0,0,0,0,0,0],"sum_hessian":[1.99E2,1.63E2,3.6E1,5.6E1,1.07E2,3.4E1,2E0,3.6E1,2E1,3E1,7.7E1,2.4E1,1E1,2.1E1,1.5E1,2E0,1.8E1,2.6E1,4E0,7E0,7E1,3E0,2.1E1,5E0,5E0],"tree_param":{"num_deleted":"0","num_feature":"13","num_nodes":"25","size_leaf_vector":"1"}},{"base_weights":[-3.366994E-3,-2.2300305E-2,1.2711106E-1,-7.915629E-2,-6.4160232E-3,9.287246E-2,1.793248E-2,-1.03529856E-1,1.23918215E-2,9.3688056E-2,-2.3736434E-2,1.0843572E-1,-2.610779E-3,-1.0563756E-3,-6.463088E-3,-5.8291196E-3,6.7604966E-3,-2.0402817E-3,3.5022937E-3,6.206106E-3,3.4081936E-4],"categories":[],"categories_nodes":[],"categories_segments":[],"categories_sizes":[],"default_left":[0,0,0,0,0,0,0,0,0,0,0,0,0,0,0,0,0,0,0,0,0],"id":41,"left_children":[1,3,5,7,9,11,-1,13,-1,15,17,19,-1,-1,-1,-1,-1,-1,-1,-1,-1],"loss_changes":[5.067925E-1,1.6114998E-1,1.7280781E-1,3.3648765E-1,2.466958E-1,5.9855044E-2,0E0,7.5722665E-2,0E0,1.991104E-1,1.965537E-1,3.422284E-2,0E0,0E0,0E0,0E0,0E0,0E0,0E0,0E0,0E0],"parents":[2147483647,0,0,1,1,2,2,3,3,4,4,5,5,7,7,9,9,10,10,11,11],"right_children":[2,4,6,8,10,12,-1,14,-1,16,18,20,-1,-1,-1,-1,-1,-1,-1,-1,-1],"split_conditions":[8.6E1,7.3E1,9.1E1,2.6E1,2.1E1,8.9E1,1.793248E-2,2.9E1,1.23918215E-2,7.6E1,8.8E1,8.4E1,-2.610779E-3,-1.0563756E-3,-6.463088E-3,-5.8291196E-3,6.7604966E-3,-2.0402817E-3,3.5022937E-3,6.206106E-3,3.4081936E-4],"split_indices":[1,5,1,0,0,5,0,7,0,1,3,3,0,0,0,0,0,0,0,0,0],"split_type":[0,0,0,0,0,0,0,0,0,0,0,0,0,0,0,0,0,0,0,0,0],"sum_hessian":[2.03E2,1.78E2,2.5E1,3.8E1,1.4E2,2.3E1,2E0,3.6E1,2E0,2E1,1.2E2,2.1E1,2E0,9E0,2.7E1,3E0,1.7E1,1.02E2,1.8E1,1.8E1,3E0],"tree_param":{"num_deleted":"0","num_feature":"13","num_nodes":"21","size_leaf_vector":"1"}},{"base_weights":[-1.536549E-3,-2.1410106E-2,1.2118425E-1,-5.0294936E-2,1.2604817E-2,1.4670587E-1,-1.0995865E-3,-6.0509693E-2,1.4975853E-1,3.365009E-2,-7.7625394E-2,1.0547307E-1,1.9388446E-1,3.6206722E-2,-2.5237403E-3,1.0136705E-3,-4.0083975E-3,1.27814775E-2,-6.843138E-3,-2.9991246E-3,2.4474838E-3,-6.1120796E-3,-1.3993128E-4,6.028212E-3,2.460162E-4,3.626895E-3,1.1776379E-2,-5.6843756E-4,2.79274E-3],"categories":[],"categories_nodes":[],"categories_segments":[],"categories_sizes":[],"default_left":[0,0,0,0,0,0,0,0,0,0,0,0,0,0,0,0,0,0,0,0,0,0,0,0,0,0,0,0,0],"id":42,"left_children":[1,3,5,7,9,11,13,15,17,19,21,23,25,27,-1,-1,-1,-1,-1,-1,-1,-1,-1,-1,-1,-1,-1,-1,-1],"loss_changes":[5.0744665E-1,1.7650421E-1,9.066689E-2,2.0728111E-1,1.6022241E-1,2.6237726E-2,1.2879569E-2,1.493144E-1,1.8671061E-1,1.0034883E-1,5.307366E-2,2.2168666E-2,3.3447832E-2,4.374065E-3,0E0,0E0,0E0,0E0,0E0,0E0,0E0,0E0,0E0,0E0,0E0,0E0,0E0,0E0,0E0],"parents":[2147483647,0,0,1,1,2,2,3,3,4,4,5,5,6,6,7,7,8,8,9,9,10,10,11,11,12,12,13,13],"right_children":[2,4,6,8,10,12,14,16,18,20,22,24,26,28,-1,-1,-1,-1,-1,-1,-1,-1,-1,-1,-1,-1,-1,-1,-1],"split_conditions":[8.6E1,8E1,2.8E1,2.8E1,2.7E1,8.2E1,8.9E1,2E1,7.1E1,3.7E1,7.6E1,8E1,8.7E1,8.7E1,-2.5237403E-3,1.0136705E-3,-4.0083975E-3,1.27814775E-2,-6.843138E-3,-2.9991246E-3,2.4474838E-3,-6.1120796E-3,-1.3993128E-4,6.028212E-3,2.460162E-4,3.626895E-3,1.1776379E-2,-5.6843756E-4,2.79274E-3],"split_indices":[1,1,0,0,0,4,5,0,1,7,4,4,1,1,0,0,0,0,0,0,0,0,0,0,0,0,0,0,0],"split_type":[0,0,0,0,0,0,0,0,0,0,0,0,0,0,0,0,0,0,0,0,0,0,0,0,0,0,0,0,0],"sum_hessian":[2.06E2,1.78E2,2.8E1,9.6E1,8.2E1,2.3E1,5E0,9.2E1,4E0,6.7E1,1.5E1,1.4E1,9E0,3E0,2E0,1.8E1,7.4E1,3E0,1E0,9E0,5.8E1,9E0,6E0,1.2E1,2E0,3E0,6E0,1E0,2E0],"tree_param":{"num_deleted":"0","num_feature":"13","num_nodes":"29","size_leaf_vector":"1"}},{"base_weights":[2.8752743E-3,-2.3885021E-2,8.095783E-2,-1.2773098E-1,-1.0121434E-2,-9.041367E-2,9.7825214E-2,3.5878182E-3,-1.4468372E-1,-6.355138E-2,1.7016947E-2,-6.4915656E-3,1.6814232E-3,1.0800823E-1,-3.609848E-2,3.2548904E-3,-8.15045E-3,-8.83929E-3,-2.225059E-3,-2.0290677E-4,7.4537196E-3,3.7278861E-3,7.31687E-3,-5.0186156E-3,9.3917846E-4],"categories":[],"categories_nodes":[],"categories_segments":[],"categories_sizes":[],"default_left":[0,0,0,0,0,0,0,0,0,0,0,0,0,0,0,0,0,0,0,0,0,0,0,0,0],"id":43,"left_children":[1,3,5,7,9,11,13,-1,15,17,19,-1,-1,21,23,-1,-1,-1,-1,-1,-1,-1,-1,-1,-1],"loss_changes":[4.093886E-1,2.0738396E-1,1.533742E-1,6.787354E-2,1.8958175E-1,2.8813273E-2,6.663132E-2,0E0,7.212046E-2,8.704692E-2,2.4273655E-1,0E0,0E0,4.4220984E-2,1.5995268E-2,0E0,0E0,0E0,0E0,0E0,0E0,0E0,0E0,0E0,0E0],"parents":[2147483647,0,0,1,1,2,2,3,3,4,4,5,5,6,6,8,8,9,9,10,10,13,13,14,14],"right_children":[2,4,6,8,10,12,14,-1,16,18,20,-1,-1,22,24,-1,-1,-1,-1,-1,-1,-1,-1,-1,-1],"split_conditions":[8.7E1,6.6E1,7.9E1,5.3E1,6.7E1,7.4E1,9.1E1,3.5878182E-3,5.9E1,4.7E1,8.5E1,-6.4915656E-3,1.6814232E-3,8.5E1,8.5E1,3.2548904E-3,-8.15045E-3,-8.83929E-3,-2.225059E-3,-2.0290677E-4,7.4537196E-3,3.7278861E-3,7.31687E-3,-5.0186156E-3,9.3917846E-4],"split_indices":[2,3,1,3,8,4,3,0,1,8,6,0,0,5,1,0,0,0,0,0,0,0,0,0,0],"split_type":[0,0,0,0,0,0,0,0,0,0,0,0,0,0,0,0,0,0,0,0,0,0,0,0,0],"sum_hessian":[1.94E2,1.45E2,4.9E1,1.6E1,1.29E2,4E0,4.5E1,1E0,1.5E1,4.3E1,8.6E1,3E0,1E0,4.2E1,3E0,1E0,1.4E1,5E0,3.8E1,7.5E1,1.1E1,2.4E1,1.8E1,1E0,2E0],"tree_param":{"num_deleted":"0","num_feature":"13","num_nodes":"25","size_leaf_vector":"1"}},{"base_weights":[8.283431E-3,-1.0659487E-2,1.2299817E-1,-2.8336635E-2,3.3570543E-2,9.343441E-2,1.6910903E-2,1.5459956E-2,-5.6954153E-2,7.216746E-2,-2.600336E-2,1.13778636E-1,-1.4767075E-2,-2.1774636E-3,3.6925392E-3,4.543247E-3,-3.3349514E-3,-7.690525E-3,4.690099E-3,-7.9922E-3,2.1387169E-3,3.3357241E-3,7.0614815E-3,-2.3829222E-3,2.91996E-3],"categories":[],"categories_nodes":[],"categories_segments":[],"categories_sizes":[],"default_left":[0,0,0,0,0,0,0,0,0,0,0,0,0,0,0,0,0,0,0,0,0,0,0,0,0],"id":44,"left_children":[1,3,5,7,9,11,-1,13,15,17,19,21,23,-1,-1,-1,-1,-1,-1,-1,-1,-1,-1,-1,-1],"loss_changes":[4.293984E-1,1.338676E-1,1.4655468E-1,1.5378916E-1,1.1454567E-1,5.891332E-2,0E0,1.7205042E-1,1.1265601E-1,1.6109546E-1,1.9094223E-1,1.9001007E-2,1.481591E-2,0E0,0E0,0E0,0E0,0E0,0E0,0E0,0E0,0E0,0E0,0E0,0E0],"parents":[2147483647,0,0,1,1,2,2,3,3,4,4,5,5,7,7,8,8,9,9,10,10,11,11,12,12],"right_children":[2,4,6,8,10,12,-1,14,16,18,20,22,24,-1,-1,-1,-1,-1,-1,-1,-1,-1,-1,-1,-1],"split_conditions":[8.6E1,8.6E1,9.1E1,5E1,2.3E1,2.8E1,1.6910903E-2,3.7E1,7E1,7.6E1,8.3E1,8.6E1,3.1E1,-2.1774636E-3,3.6925392E-3,4.543247E-3,-3.3349514E-3,-7.690525E-3,4.690099E-3,-7.9922E-3,2.1387169E-3,3.3357241E-3,7.0614815E-3,-2.3829222E-3,2.91996E-3],"split_indices":[1,2,1,7,0,0,0,7,2,1,1,5,0,0,0,0,0,0,0,0,0,0,0,0,0],"split_type":[0,0,0,0,0,0,0,0,0,0,0,0,0,0,0,0,0,0,0,0,0,0,0,0,0],"sum_hessian":[1.96E2,1.69E2,2.7E1,1.21E2,4.8E1,2.5E1,2E0,4.8E1,7.3E1,2.9E1,1.9E1,2.1E1,4E0,2.4E1,2.4E1,4E0,6.9E1,2E0,2.7E1,6E0,1.3E1,9E0,1.2E1,3E0,1E0],"tree_param":{"num_deleted":"0","num_feature":"13","num_nodes":"25","size_leaf_vector":"1"}},{"base_weights":[1.146869E-2,-3.6729835E-3,1.426278E-1,-4.1555002E-2,2.2224097E-2,8.756089E-2,1.451582E-2,-1.6292885E-2,-1.2084097E-1,7.804529E-2,-9.76739E-3,-2.384758E-3,1.22442685E-1,-7.5210743E-3,8.428087E-4,-1.01513965E-2,-1.5010835E-4,1.8229525E-3,6.6473843E-3,-7.943805E-3,2.4100118E-4,8.014812E-3,-1.4009477E-4],"categories":[],"categories_nodes":[],"categories_segments":[],"categories_sizes":[],"default_left":[0,0,0,0,0,0,0,0,0,0,0,0,0,0,0,0,0,0,0,0,0,0,0],"id":45,"left_children":[1,3,5,7,9,11,-1,13,15,17,19,-1,21,-1,-1,-1,-1,-1,-1,-1,-1,-1,-1],"loss_changes":[3.8381582E-1,1.7162338E-1,1.3723475E-1,1.4023931E-1,1.8648581E-1,8.132752E-2,0E0,2.4707857E-1,1.6403227E-1,8.191386E-2,1.4649819E-1,0E0,6.2081546E-2,0E0,0E0,0E0,0E0,0E0,0E0,0E0,0E0,0E0,0E0],"parents":[2147483647,0,0,1,1,2,2,3,3,4,4,5,5,7,7,8,8,9,9,10,10,12,12],"right_children":[2,4,6,8,10,12,-1,14,16,18,20,-1,22,-1,-1,-1,-1,-1,-1,-1,-1,-1,-1],"split_conditions":[8.5E1,7.7E1,8.9E1,8E1,7.7E1,3.7E1,1.451582E-2,3.3E1,8.1E1,8.2E1,7.8E1,-2.384758E-3,8.3E1,-7.5210743E-3,8.428087E-4,-1.01513965E-2,-1.5010835E-4,1.8229525E-3,6.6473843E-3,-7.943805E-3,2.4100118E-4,8.014812E-3,-1.4009477E-4],"split_indices":[4,6,3,3,3,7,0,4,7,6,3,0,3,0,0,0,0,0,0,0,0,0,0],"split_type":[0,0,0,0,0,0,0,0,0,0,0,0,0,0,0,0,0,0,0,0,0,0,0],"sum_hessian":[1.92E2,1.73E2,1.9E1,7E1,1.03E2,1.5E1,4E0,5.4E1,1.6E1,3.7E1,6.6E1,3E0,1.2E1,1E1,4.4E1,9E0,7E0,2.2E1,1.5E1,5E0,6.1E1,9E0,3E0],"tree_param":{"num_deleted":"0","num_feature":"13","num_nodes":"23","size_leaf_vector":"1"}},{"base_weights":[6.693452E-3,-8.134902E-3,1.3310423E-1,-5.845025E-2,1.0518848E-2,2.2055864E-1,7.7588275E-2,5.176408E-4,-1.24810696E-1,-3.37581E-2,4.304161E-2,1.1847182E-2,2.6465894E-3,1.0328622E-1,5.5351257E-3,-1.265988E-3,1.1213462E-2,-7.300082E-3,3.6096573E-3,-2.3460723E-3,1.137991E-2,3.8483588E-3,-2.494851E-3,6.119261E-3,-2.1925927E-3,-8.385341E-4,1.2997945E-3],"categories":[],"categories_nodes":[],"categories_segments":[],"categories_sizes":[],"default_left":[0,0,0,0,0,0,0,0,0,0,0,0,0,0,0,0,0,0,0,0,0,0,0,0,0,0,0],"id":46,"left_children":[1,3,5,7,9,11,13,15,17,19,21,-1,-1,23,25,-1,-1,-1,-1,-1,-1,-1,-1,-1,-1,-1,-1],"loss_changes":[3.9284578E-1,1.7706598E-1,8.9699775E-2,1.9963454E-1,2.001742E-1,9.4307065E-3,2.7202576E-2,1.6755092E-1,1.1073306E-1,2.1365832E-1,2.560801E-1,0E0,0E0,3.6278896E-2,2.717938E-3,0E0,0E0,0E0,0E0,0E0,0E0,0E0,0E0,0E0,0E0,0E0,0E0],"parents":[2147483647,0,0,1,1,2,2,3,3,4,4,5,5,6,6,7,7,8,8,9,9,10,10,13,13,14,14],"right_children":[2,4,6,8,10,12,14,16,18,20,22,-1,-1,24,26,-1,-1,-1,-1,-1,-1,-1,-1,-1,-1,-1,-1],"split_conditions":[8.9E1,6.5E1,5.9E1,2.3E1,8E1,2.7E1,8.3E1,8.2E1,2.9E1,2.8E1,2.7E1,1.1847182E-2,2.6465894E-3,2.7E1,2.5E1,-1.265988E-3,1.1213462E-2,-7.300082E-3,3.6096573E-3,-2.3460723E-3,1.137991E-2,3.8483588E-3,-2.494851E-3,6.119261E-3,-2.1925927E-3,-8.385341E-4,1.2997945E-3],"split_indices":[2,8,7,0,1,0,3,1,0,0,0,0,0,0,0,0,0,0,0,0,0,0,0,0,0,0,0],"split_type":[0,0,0,0,0,0,0,0,0,0,0,0,0,0,0,0,0,0,0,0,0,0,0,0,0,0,0],"sum_hessian":[2.08E2,1.87E2,2.1E1,5E1,1.37E2,7E0,1.4E1,2.7E1,2.3E1,5.8E1,7.9E1,6E0,1E0,1E1,4E0,2.5E1,2E0,2.1E1,2E0,5.6E1,2E0,5.8E1,2.1E1,9E0,1E0,2E0,2E0],"tree_param":{"num_deleted":"0","num_feature":"13","num_nodes":"27","size_leaf_vector":"1"}},{"base_weights":[5.5185956E-4,-2.287548E-2,6.315672E-2,-3.1133708E-2,6.464268E-2,4.8028477E-2,1.5468502E-2,-6.814987E-5,-5.7517223E-2,1.8660164E-1,-3.4906864E-2,-7.899809E-3,5.502888E-2,-2.3056257E-3,3.3615038E-3,-5.960687E-3,-1.8329552E-3,2.635479E-4,1.109068E-2,-7.083098E-3,1.2144248E-3,5.3975964E-3,1.0643381E-3],"categories":[],"categories_nodes":[],"categories_segments":[],"categories_sizes":[],"default_left":[0,0,0,0,0,0,0,0,0,0,0,0,0,0,0,0,0,0,0,0,0,0,0],"id":47,"left_children":[1,3,5,7,9,11,-1,13,15,17,19,-1,21,-1,-1,-1,-1,-1,-1,-1,-1,-1,-1],"loss_changes":[2.9624447E-1,1.0825606E-1,1.9000399E-1,1.1064461E-1,1.6434614E-1,8.513388E-2,0E0,1.9831848E-1,8.9571446E-2,3.714086E-2,5.3996004E-2,0E0,9.05603E-2,0E0,0E0,0E0,0E0,0E0,0E0,0E0,0E0,0E0,0E0],"parents":[2147483647,0,0,1,1,2,2,3,3,4,4,5,5,7,7,8,8,9,9,10,10,12,12],"right_children":[2,4,6,8,10,12,-1,14,16,18,20,-1,22,-1,-1,-1,-1,-1,-1,-1,-1,-1,-1],"split_conditions":[8.3E1,9E1,9.1E1,7.6E1,9.2E1,4E1,1.5468502E-2,7.2E1,7.3E1,2.1E1,7.9E1,-7.899809E-3,8.2E1,-2.3056257E-3,3.3615038E-3,-5.960687E-3,-1.8329552E-3,2.635479E-4,1.109068E-2,-7.083098E-3,1.2144248E-3,5.3975964E-3,1.0643381E-3],"split_indices":[1,3,1,3,3,8,0,3,5,0,1,0,5,0,0,0,0,0,0,0,0,0,0],"split_type":[0,0,0,0,0,0,0,0,0,0,0,0,0,0,0,0,0,0,0,0,0,0,0],"sum_hessian":[2E2,1.46E2,5.4E1,1.34E2,1.2E1,5.2E1,2E0,6.2E1,7.2E1,5E0,7E0,1E0,5.1E1,3.7E1,2.5E1,1.7E1,5.5E1,1E0,4E0,2E0,5E0,1.9E1,3.2E1],"tree_param":{"num_deleted":"0","num_feature":"13","num_nodes":"23","size_leaf_vector":"1"}},{"base_weights":[6.83775E-3,-5.7880697E-3,1.2139082E-1,-1.3143094E-1,7.439646E-4,6.8942785E-2,1.3247319E-2,1.8341541E-3,-1.5703058E-1,-9.122385E-2,8.736545E-3,-4.4632275E-3,9.7919874E-2,-8.469582E-3,-1.7625809E-3,-6.3216533E-3,4.001045E-3,7.3793307E-3,2.5589636E-5,7.3525235E-3,-9.962654E-4],"categories":[],"categories_nodes":[],"categories_segments":[],"categories_sizes":[],"default_left":[0,0,0,0,0,0,0,0,0,0,0,0,0,0,0,0,0,0,0,0,0],"id":48,"left_children":[1,3,5,7,9,11,-1,-1,13,15,17,-1,19,-1,-1,-1,-1,-1,-1,-1,-1],"loss_changes":[2.9141423E-1,1.4946583E-1,1.3231796E-1,4.4493288E-2,1.2869745E-1,8.2090996E-2,0E0,0E0,6.071195E-3,9.452876E-2,1.8378766E-1,0E0,8.398728E-2,0E0,0E0,0E0,0E0,0E0,0E0,0E0,0E0],"parents":[2147483647,0,0,1,1,2,2,3,3,4,4,5,5,8,8,9,9,10,10,12,12],"right_children":[2,4,6,8,10,12,-1,-1,14,16,18,-1,20,-1,-1,-1,-1,-1,-1,-1,-1],"split_conditions":[8.5E1,4.8E1,8.9E1,5.8E1,3.4E1,8.4E1,1.3247319E-2,1.8341541E-3,8.7E1,8E1,7E1,-4.4632275E-3,8.3E1,-8.469582E-3,-1.7625809E-3,-6.3216533E-3,4.001045E-3,7.3793307E-3,2.5589636E-5,7.3525235E-3,-9.962654E-4],"split_indices":[4,8,3,4,4,2,0,0,2,3,1,0,3,0,0,0,0,0,0,0,0],"split_type":[0,0,0,0,0,0,0,0,0,0,0,0,0,0,0,0,0,0,0,0,0],"sum_hessian":[2E2,1.81E2,1.9E1,8E0,1.73E2,1.5E1,4E0,1E0,7E0,1.3E1,1.6E2,2E0,1.3E1,6E0,1E0,1.1E1,2E0,8E0,1.52E2,9E0,4E0],"tree_param":{"num_deleted":"0","num_feature":"13","num_nodes":"21","size_leaf_vector":"1"}},{"base_weights":[8.166607E-3,-8.196081E-3,1.01856664E-1,-2.3816904E-2,5.86632E-2,-6.7686713E-3,1.22885406E-1,-4.404238E-2,1.1082367E-2,1.0973632E-1,1.2566717E-2,2.3937671E-1,6.7108884E-2,-4.748583E-4,-4.756835E-3,-2.7763627E-3,2.7576478E-3,-1.0790144E-5,8.786459E-3,-2.24388E-3,7.22545E-3,4.8968317E-3,1.328986E-2,4.287508E-3,-1.6777039E-3],"categories":[],"categories_nodes":[],"categories_segments":[],"categories_sizes":[],"default_left":[0,0,0,0,0,0,0,0,0,0,0,0,0,0,0,0,0,0,0,0,0,0,0,0,0],"id":49,"left_children":[1,3,5,7,9,-1,11,13,15,17,19,21,23,-1,-1,-1,-1,-1,-1,-1,-1,-1,-1,-1,-1],"loss_changes":[3.1970322E-1,1.8729985E-1,1.712836E-1,1.02836974E-1,7.866688E-2,0E0,1.7236266E-1,1.6148236E-1,1.6158083E-1,1.1613479E-1,1.5049255E-1,7.600963E-3,4.2283483E-2,0E0,0E0,0E0,0E0,0E0,0E0,0E0,0E0,0E0,0E0,0E0,0E0],"parents":[2147483647,0,0,1,1,2,2,3,3,4,4,6,6,7,7,8,8,9,9,10,10,11,11,12,12],"right_children":[2,4,6,8,10,-1,12,14,16,18,20,22,24,-1,-1,-1,-1,-1,-1,-1,-1,-1,-1,-1,-1],"split_conditions":[8.8E1,8.2E1,7.9E1,7.6E1,7.7E1,-6.7686713E-3,5.9E1,5E1,8.5E1,7.1E1,8.6E1,8.9E1,1E0,-4.748583E-4,-4.756835E-3,-2.7763627E-3,2.7576478E-3,-1.0790144E-5,8.786459E-3,-2.24388E-3,7.22545E-3,4.8968317E-3,1.328986E-2,4.287508E-3,-1.6777039E-3],"split_indices":[2,8,1,7,3,0,7,7,2,6,3,2,9,0,0,0,0,0,0,0,0,0,0,0,0],"split_type":[0,0,0,0,0,0,0,0,0,0,0,0,0,0,0,0,0,0,0,0,0,0,0,0,0],"sum_hessian":[2.07E2,1.77E2,3E1,1.44E2,3.3E1,2E0,2.8E1,9.1E1,5.3E1,1.5E1,1.8E1,8E0,2E1,5.5E1,3.6E1,2.1E1,3.2E1,6E0,9E0,1.3E1,5E0,2E0,6E0,1.7E1,3E0],"tree_param":{"num_deleted":"0","num_feature":"13","num_nodes":"25","size_leaf_vector":"1"}},{"base_weights":[2.716392E-3,-1.827886E-2,6.6932134E-2,-1.1627363E-1,-7.33621E-3,3.2564096E-2,1.1120551E-1,3.5429E-3,-1.3470146E-1,-1.581955E-2,1.0113583E-1,5.388196E-2,-8.50757E-3,1.3691647E-1,-3.2295227E-2,3.1236173E-3,-7.7337115E-3,-2.7012588E-3,2.1906239E-4,-1.8294335E-3,7.0070266E-3,4.7599496E-3,-2.8487842E-4,-3.6411287E-4,7.2913566E-3,8.9435576E-4,-2.7492524E-3],"categories":[],"categories_nodes":[],"categories_segments":[],"categories_sizes":[],"default_left":[0,0,0,0,0,0,0,0,0,0,0,0,0,0,0,0,0,0,0,0,0,0,0,0,0,0,0],"id":50,"left_children":[1,3,5,7,9,11,13,-1,15,17,19,21,-1,23,25,-1,-1,-1,-1,-1,-1,-1,-1,-1,-1,-1,-1],"loss_changes":[2.6817212E-1,1.5999535E-1,7.0936546E-2,6.1271116E-2,1.2674782E-1,1.3449048E-1,8.190215E-2,0E0,6.479639E-2,9.825327E-2,5.8846593E-2,6.700692E-2,0E0,2.4190217E-2,5.538037E-3,0E0,0E0,0E0,0E0,0E0,0E0,0E0,0E0,0E0,0E0,0E0,0E0],"parents":[2147483647,0,0,1,1,2,2,3,3,4,4,5,5,6,6,8,8,9,9,10,10,11,11,13,13,14,14],"right_children":[2,4,6,8,10,12,14,-1,16,18,20,22,-1,24,26,-1,-1,-1,-1,-1,-1,-1,-1,-1,-1,-1,-1],"split_conditions":[8.7E1,6.6E1,8.5E1,5.3E1,9E1,1E0,2.7E1,3.5429E-3,2E1,6.8E1,2.1E1,8.5E1,-8.50757E-3,5.2E1,2.9E1,3.1236173E-3,-7.7337115E-3,-2.7012588E-3,2.1906239E-4,-1.8294335E-3,7.0070266E-3,4.7599496E-3,-2.8487842E-4,-3.6411287E-4,7.2913566E-3,8.9435576E-4,-2.7492524E-3],"split_indices":[2,3,5,3,3,12,0,0,0,8,0,3,0,3,0,0,0,0,0,0,0,0,0,0,0,0,0],"split_type":[0,0,0,0,0,0,0,0,0,0,0,0,0,0,0,0,0,0,0,0,0,0,0,0,0,0,0],"sum_hessian":[1.97E2,1.49E2,4.8E1,1.4E1,1.35E2,2.8E1,2E1,1E0,1.3E1,1.26E2,9E0,2.6E1,2E0,1.7E1,3E0,1E0,1.2E1,4.3E1,8.3E1,2E0,7E0,1.5E1,1.1E1,1E0,1.6E1,1E0,2E0],"tree_param":{"num_deleted":"0","num_feature":"13","num_nodes":"27","size_leaf_vector":"1"}},{"base_weights":[4.50138E-3,-1.3325708E-2,7.8816935E-2,3.551528E-2,-3.4501474E-2,6.0936477E-2,1.3951524E-2,9.895065E-3,1.7198706E-1,-9.045048E-2,7.144872E-3,9.467153E-2,2.2218704E-2,7.0744515E-3,-5.30194E-4,-3.3105374E-3,1.07737E-2,3.9377213E-3,-5.550056E-3,1.898771E-3,-4.7713937E-3,-4.611635E-3,5.468148E-3,-1.4546803E-3,2.4069638E-3],"categories":[],"categories_nodes":[],"categories_segments":[],"categories_sizes":[],"default_left":[0,0,0,0,0,0,0,0,0,0,0,0,0,0,0,0,0,0,0,0,0,0,0,0,0],"id":51,"left_children":[1,3,5,7,9,11,-1,13,15,17,19,21,23,-1,-1,-1,-1,-1,-1,-1,-1,-1,-1,-1,-1],"loss_changes":[2.739653E-1,1.739443E-1,1.2619328E-1,1.7661643E-1,2.7326465E-1,4.7530085E-2,0E0,1.2019198E-1,9.7134635E-2,1.826053E-1,2.1866533E-1,6.50046E-2,2.6671395E-2,0E0,0E0,0E0,0E0,0E0,0E0,0E0,0E0,0E0,0E0,0E0,0E0],"parents":[2147483647,0,0,1,1,2,2,3,3,4,4,5,5,7,7,8,8,9,9,10,10,11,11,12,12],"right_children":[2,4,6,8,10,12,-1,14,16,18,20,22,24,-1,-1,-1,-1,-1,-1,-1,-1,-1,-1,-1,-1],"split_conditions":[8.5E1,4.5E1,9.1E1,4.2E1,7.6E1,2.6E1,1.3951524E-2,6.5E1,7.5E1,7.5E1,2.6E1,5.2E1,8.6E1,7.0744515E-3,-5.30194E-4,-3.3105374E-3,1.07737E-2,3.9377213E-3,-5.550056E-3,1.898771E-3,-4.7713937E-3,-4.611635E-3,5.468148E-3,-1.4546803E-3,2.4069638E-3],"split_indices":[1,7,1,7,7,0,0,4,4,2,0,4,1,0,0,0,0,0,0,0,0,0,0,0,0],"split_type":[0,0,0,0,0,0,0,0,0,0,0,0,0,0,0,0,0,0,0,0,0,0,0,0,0],"sum_hessian":[2.05E2,1.66E2,3.9E1,5E1,1.16E2,3.7E1,2E0,4.3E1,7E0,4.9E1,6.7E1,1.9E1,1.8E1,5E0,3.8E1,1E0,6E0,5E0,4.4E1,5.2E1,1.5E1,1E0,1.8E1,6E0,1.2E1],"tree_param":{"num_deleted":"0","num_feature":"13","num_nodes":"25","size_leaf_vector":"1"}},{"base_weights":[-7.3569054E-3,-2.0055965E-2,1.2498093E-1,1.14721775E-1,-2.5934665E-2,7.55291E-2,1.1922493E-2,-8.932781E-2,1.2750856E-2,-3.8717568E-2,4.793577E-2,-1.4724731E-2,1.4506006E-1,-5.1014586E-3,-1.2805939E-3,-2.4557402E-3,1.1318455E-3,-6.4326287E-3,3.360447E-3,-2.5587273E-3,2.5466601E-3,8.114229E-3,6.1221124E-4],"categories":[],"categories_nodes":[],"categories_segments":[],"categories_sizes":[],"default_left":[0,0,0,0,0,0,0,0,0,0,0,0,0,0,0,0,0,0,0,0,0,0,0],"id":52,"left_children":[1,3,5,7,9,11,-1,13,-1,15,17,19,21,-1,-1,-1,-1,-1,-1,-1,-1,-1,-1],"loss_changes":[3.4534207E-1,1.5113871E-1,8.299255E-2,2.5179774E-1,1.718261E-1,8.999207E-2,0E0,6.239563E-4,0E0,9.935105E-2,1.00538865E-1,1.9359019E-2,1.6314462E-2,0E0,0E0,0E0,0E0,0E0,0E0,0E0,0E0,0E0,0E0],"parents":[2147483647,0,0,1,1,2,2,3,3,4,4,5,5,7,7,9,9,10,10,11,11,12,12],"right_children":[2,4,6,8,10,12,-1,14,-1,16,18,20,22,-1,-1,-1,-1,-1,-1,-1,-1,-1,-1],"split_conditions":[8.5E1,7.2E1,8.9E1,6.3E1,8.8E1,8.5E1,1.1922493E-2,6.2E1,1.2750856E-2,8.2E1,7.9E1,8.6E1,8.3E1,-5.1014586E-3,-1.2805939E-3,-2.4557402E-3,1.1318455E-3,-6.4326287E-3,3.360447E-3,-2.5587273E-3,2.5466601E-3,8.114229E-3,6.1221124E-4],"split_indices":[4,2,3,1,2,6,0,1,0,7,1,1,3,0,0,0,0,0,0,0,0,0,0],"split_type":[0,0,0,0,0,0,0,0,0,0,0,0,0,0,0,0,0,0,0,0,0,0,0],"sum_hessian":[2.03E2,1.86E2,1.7E1,7E0,1.79E2,1.3E1,4E0,3E0,4E0,1.53E2,2.6E1,6E0,7E0,2E0,1E0,1.31E2,2.2E1,2E0,2.4E1,4E0,2E0,6E0,1E0],"tree_param":{"num_deleted":"0","num_feature":"13","num_nodes":"23","size_leaf_vector":"1"}},{"base_weights":[-4.9562072E-3,-1.689451E-2,1.3339019E-1,-3.2135896E-2,5.4282043E-2,1.7670943E-1,3.1739872E-2,-3.9060514E-2,8.299807E-2,1.486353E-1,1.2706439E-2,1.181736E-2,1.08866826E-1,5.4698564E-2,-2.0763397E-3,2.5074515E-3,-2.4488587E-3,5.9241294E-3,-5.0219535E-3,1.4030791E-2,2.599212E-3,-3.2882595E-3,3.2086882E-3,5.731106E-4,6.159528E-3,3.054762E-3,7.277966E-4],"categories":[],"categories_nodes":[],"categories_segments":[],"categories_sizes":[],"default_left":[0,0,0,0,0,0,0,0,0,0,0,0,0,0,0,0,0,0,0,0,0,0,0,0,0,0,0],"id":53,"left_children":[1,3,5,7,9,11,13,15,17,19,21,-1,23,25,-1,-1,-1,-1,-1,-1,-1,-1,-1,-1,-1,-1,-1],"loss_changes":[3.325778E-1,2.024378E-1,6.484592E-2,1.2522253E-1,1.2756355E-1,1.8775433E-2,1.2364095E-2,1.3073197E-1,7.0482895E-2,1.12972945E-1,1.011498E-1,0E0,8.354351E-3,3.945995E-4,0E0,0E0,0E0,0E0,0E0,0E0,0E0,0E0,0E0,0E0,0E0,0E0,0E0],"parents":[2147483647,0,0,1,1,2,2,3,3,4,4,5,5,6,6,7,7,8,8,9,9,10,10,12,12,13,13],"right_children":[2,4,6,8,10,12,14,16,18,20,22,-1,24,26,-1,-1,-1,-1,-1,-1,-1,-1,-1,-1,-1,-1,-1],"split_conditions":[8.7E1,8.2E1,2.7E1,8.7E1,4.5E1,5.9E1,8.9E1,7.1E1,2.8E1,8.4E1,8.1E1,1.181736E-2,7.3E1,8.7E1,-2.0763397E-3,2.5074515E-3,-2.4488587E-3,5.9241294E-3,-5.0219535E-3,1.4030791E-2,2.599212E-3,-3.2882595E-3,3.2086882E-3,5.731106E-4,6.159528E-3,3.054762E-3,7.277966E-4],"split_indices":[1,8,0,5,7,7,5,1,0,8,7,0,8,5,0,0,0,0,0,0,0,0,0,0,0,0,0],"split_type":[0,0,0,0,0,0,0,0,0,0,0,0,0,0,0,0,0,0,0,0,0,0,0,0,0,0,0],"sum_hessian":[1.99E2,1.84E2,1.5E1,1.52E2,3.2E1,1E1,5E0,1.44E2,8E0,9E0,2.3E1,4E0,6E0,4E0,1E0,1.4E1,1.3E2,7E0,1E0,3E0,6E0,9E0,1.4E1,1E0,5E0,3E0,1E0],"tree_param":{"num_deleted":"0","num_feature":"13","num_nodes":"27","size_leaf_vector":"1"}},{"base_weights":[1.3628099E-3,-2.8170245E-2,3.6914848E-2,-3.3525415E-2,8.878804E-3,6.0811486E-2,-3.8458038E-2,-2.369231E-2,-9.422226E-2,1.4175272E-1,4.9743652E-2,-8.719356E-2,2.263468E-2,-1.7798337E-3,4.76692E-3,2.4759292E-3,-5.4013254E-3,-8.4638596E-4,8.34198E-3,7.215992E-4,4.023827E-3,-3.0438944E-3,-7.730993E-3,2.3101172E-3,-2.78066E-3],"categories":[],"categories_nodes":[],"categories_segments":[],"categories_sizes":[],"default_left":[0,0,0,0,0,0,0,0,0,0,0,0,0,0,0,0,0,0,0,0,0,0,0,0,0],"id":54,"left_children":[1,3,5,7,-1,9,11,13,15,17,19,21,23,-1,-1,-1,-1,-1,-1,-1,-1,-1,-1,-1,-1],"loss_changes":[2.152318E-1,1.2935564E-1,1.6984643E-1,6.341989E-2,0E0,5.655366E-2,7.0453465E-2,1.394243E-1,3.5112828E-2,3.467059E-2,6.829324E-2,1.36538595E-2,2.2854777E-2,0E0,0E0,0E0,0E0,0E0,0E0,0E0,0E0,0E0,0E0,0E0,0E0],"parents":[2147483647,0,0,1,1,2,2,3,3,5,5,6,6,7,7,8,8,9,9,10,10,11,11,12,12],"right_children":[2,4,6,8,-1,10,12,14,16,18,20,22,24,-1,-1,-1,-1,-1,-1,-1,-1,-1,-1,-1,-1],"split_conditions":[8.1E1,2.9E1,2.7E1,8.1E1,8.878804E-3,8.4E1,8.6E1,8E1,5.7E1,3E1,8.7E1,8.5E1,8.9E1,-1.7798337E-3,4.76692E-3,2.4759292E-3,-5.4013254E-3,-8.4638596E-4,8.34198E-3,7.215992E-4,4.023827E-3,-3.0438944E-3,-7.730993E-3,2.3101172E-3,-2.78066E-3],"split_indices":[1,0,0,5,0,2,1,5,3,7,2,5,5,0,0,0,0,0,0,0,0,0,0,0,0],"split_type":[0,0,0,0,0,0,0,0,0,0,0,0,0,0,0,0,0,0,0,0,0,0,0,0,0],"sum_hessian":[2.03E2,1.11E2,9.2E1,1.09E2,2E0,7E1,2.2E1,9.5E1,1.4E1,7E0,6.3E1,1.2E1,1E1,8.7E1,8E0,1E0,1.3E1,1E0,6E0,3E1,3.3E1,1E1,2E0,8E0,2E0],"tree_param":{"num_deleted":"0","num_feature":"13","num_nodes":"25","size_leaf_vector":"1"}},{"base_weights":[7.399935E-3,-2.7061267E-2,2.9553438E-2,-5.57739E-2,5.3528924E-2,-1.976649E-3,7.923861E-2,1.4950752E-2,-9.061285E-2,-6.927452E-2,8.649882E-2,3.2754067E-2,-3.8531277E-2,1.3874221E-1,1.6433397E-2,2.652812E-3,-5.4988484E-3,-1.974902E-3,-6.859851E-3,5.75366E-3,-7.206488E-3,5.792325E-3,-1.8921376E-3,-2.8774203E-3,4.5795483E-3,3.0556584E-3,-3.6371232E-3,-7.138491E-4,8.064098E-3,-1.554896E-3,4.3043518E-3],"categories":[],"categories_nodes":[],"categories_segments":[],"categories_sizes":[],"default_left":[0,0,0,0,0,0,0,0,0,0,0,0,0,0,0,0,0,0,0,0,0,0,0,0,0,0,0,0,0,0,0],"id":55,"left_children":[1,3,5,7,9,11,13,15,17,19,21,23,25,27,29,-1,-1,-1,-1,-1,-1,-1,-1,-1,-1,-1,-1,-1,-1,-1,-1],"loss_changes":[1.5196013E-1,1.8347412E-1,1.8971255E-1,1.4426515E-1,9.1017306E-2,9.647968E-2,1.7336538E-1,1.010436E-1,8.744547E-2,8.5582435E-2,6.641927E-2,2.1248247E-1,1.3057685E-1,8.5078925E-2,8.213463E-2,0E0,0E0,0E0,0E0,0E0,0E0,0E0,0E0,0E0,0E0,0E0,0E0,0E0,0E0,0E0,0E0],"parents":[2147483647,0,0,1,1,2,2,3,3,4,4,5,5,6,6,7,7,8,8,9,9,10,10,11,11,12,12,13,13,14,14],"right_children":[2,4,6,8,10,12,14,16,18,20,22,24,26,28,30,-1,-1,-1,-1,-1,-1,-1,-1,-1,-1,-1,-1,-1,-1,-1,-1],"split_conditions":[7E1,8.2E1,7.9E1,4E1,5.8E1,6E1,8.2E1,8.7E1,2.2E1,2.1E1,2.7E1,3.5E1,7.8E1,7.3E1,1E0,2.652812E-3,-5.4988484E-3,-1.974902E-3,-6.859851E-3,5.75366E-3,-7.206488E-3,5.792325E-3,-1.8921376E-3,-2.8774203E-3,4.5795483E-3,3.0556584E-3,-3.6371232E-3,-7.138491E-4,8.064098E-3,-1.554896E-3,4.3043518E-3],"split_indices":[8,1,6,7,8,4,5,3,0,0,0,4,1,8,12,0,0,0,0,0,0,0,0,0,0,0,0,0,0,0,0],"split_type":[0,0,0,0,0,0,0,0,0,0,0,0,0,0,0,0,0,0,0,0,0,0,0,0,0,0,0,0,0,0,0],"sum_hessian":[1.97E2,7.7E1,1.2E2,5.7E1,2E1,7.4E1,4.6E1,1.9E1,3.8E1,4E0,1.6E1,3.8E1,3.6E1,2.3E1,2.3E1,1.5E1,4E0,1.9E1,1.9E1,1E0,3E0,1.3E1,3E0,1.5E1,2.3E1,9E0,2.7E1,3E0,2E1,1.4E1,9E0],"tree_param":{"num_deleted":"0","num_feature":"13","num_nodes":"31","size_leaf_vector":"1"}},{"base_weights":[1.5086916E-3,-3.9443537E-3,1.9315414E-1,-1.7988551E-2,3.7339613E-2,3.643735E-3,1.2452444E-2,1.2570167E-2,-3.5600323E-2,-1.3903777E-1,6.286273E-2,-2.7905225E-3,2.2189785E-3,-1.1634228E-3,-8.39634E-3,-8.098841E-3,-3.1053226E-3,1.1073462E-2,2.434344E-3],"categories":[],"categories_nodes":[],"categories_segments":[],"categories_sizes":[],"default_left":[0,0,0,0,0,0,0,0,0,0,0,0,0,0,0,0,0,0,0],"id":56,"left_children":[1,3,5,7,9,-1,-1,11,13,15,17,-1,-1,-1,-1,-1,-1,-1,-1],"loss_changes":[1.888711E-1,1.0271652E-1,1.5465587E-2,7.148899E-2,2.1131682E-1,0E0,0E0,1.09059036E-1,1.3316652E-1,5.28574E-4,7.915264E-2,0E0,0E0,0E0,0E0,0E0,0E0,0E0,0E0],"parents":[2147483647,0,0,1,1,2,2,3,3,4,4,7,7,8,8,9,9,10,10],"right_children":[2,4,6,8,10,-1,-1,12,14,16,18,-1,-1,-1,-1,-1,-1,-1,-1],"split_conditions":[9E1,8.7E1,8.9E1,5E1,7.9E1,3.643735E-3,1.2452444E-2,6.1E1,7.8E1,8.1E1,7.6E1,-2.7905225E-3,2.2189785E-3,-1.1634228E-3,-8.39634E-3,-8.098841E-3,-3.1053226E-3,1.1073462E-2,2.434344E-3],"split_indices":[4,2,1,7,1,0,0,8,4,3,5,0,0,0,0,0,0,0,0],"split_type":[0,0,0,0,0,0,0,0,0,0,0,0,0,0,0,0,0,0,0],"sum_hessian":[1.79E2,1.75E2,4E0,1.31E2,4.4E1,2E0,2E0,4.8E1,8.3E1,5E0,3.9E1,1.5E1,3.3E1,7.7E1,6E0,3E0,2E0,2E0,3.7E1],"tree_param":{"num_deleted":"0","num_feature":"13","num_nodes":"19","size_leaf_vector":"1"}},{"base_weights":[3.3513221E-3,-1.391062E-4,1.2037341E-2,-2.5823439E-2,2.9872473E-2,-3.1005668E-2,8.553601E-3,4.9476407E-2,-6.298536E-2,-8.71774E-4,-5.439633E-3,2.4940702E-4,3.5603363E-3,-4.963239E-3,-9.853787E-4],"categories":[],"categories_nodes":[],"categories_segments":[],"categories_sizes":[],"default_left":[0,0,0,0,0,0,0,0,0,0,0,0,0,0,0],"id":57,"left_children":[1,3,-1,5,7,9,-1,11,13,-1,-1,-1,-1,-1,-1],"loss_changes":[1.7155614E-1,1.5879104E-1,0E0,1.1856385E-1,1.7605227E-1,1.131618E-1,0E0,7.601759E-2,2.4735324E-2,0E0,0E0,0E0,0E0,0E0,0E0],"parents":[2147483647,0,0,1,1,3,3,4,4,5,5,7,7,8,8],"right_children":[2,4,-1,6,8,10,-1,12,14,-1,-1,-1,-1,-1,-1],"split_conditions":[9.1E1,8E1,1.2037341E-2,2.9E1,2.7E1,1E0,8.553601E-3,6.5E1,7.1E1,-8.71774E-4,-5.439633E-3,2.4940702E-4,3.5603363E-3,-4.963239E-3,-9.853787E-4],"split_indices":[1,5,0,0,0,12,0,4,3,0,0,0,0,0,0],"split_type":[0,0,0,0,0,0,0,0,0,0,0,0,0,0,0],"sum_hessian":[2.06E2,2.04E2,2E0,1.1E2,9.4E1,1.08E2,2E0,7.8E1,1.6E1,9.3E1,1.5E1,2.6E1,5.2E1,8E0,8E0],"tree_param":{"num_deleted":"0","num_feature":"13","num_nodes":"15","size_leaf_vector":"1"}},{"base_weights":[2.1178488E-4,-3.524889E-2,2.8447028E-2,6.262381E-2,-4.8950873E-2,-1.2577337E-1,5.2754037E-2,-5.1536243E-2,1.6634655E-1,-1.0414234E-1,-1.9854227E-2,1.8782297E-2,-1.4945748E-1,1.7609048E-1,4.0806387E-2,3.0032159E-3,-4.293461E-3,-3.780985E-3,1.14931865E-2,-5.97793E-3,-7.7411655E-4,-1.8354254E-3,7.1273423E-3,-1.1002541E-3,2.5089264E-3,-2.116585E-3,-8.868103E-3,1.14325285E-2,4.9412153E-3,1.5677292E-3,9.477253E-3],"categories":[],"categories_nodes":[],"categories_segments":[],"categories_sizes":[],"default_left":[0,0,0,0,0,0,0,0,0,0,0,0,0,0,0,0,0,0,0,0,0,0,0,0,0,0,0,0,0,0,0],"id":58,"left_children":[1,3,5,7,9,11,13,15,17,19,21,23,25,27,29,-1,-1,-1,-1,-1,-1,-1,-1,-1,-1,-1,-1,-1,-1,-1,-1],"loss_changes":[1.942422E-1,1.1839578E-1,4.1148782E-1,1.3882382E-1,1.1997971E-1,5.4162264E-2,1.3133097E-1,2.814715E-2,1.095963E-1,3.3685893E-2,1.4482749E-1,4.945892E-3,3.1352818E-2,9.892702E-3,1.1636573E-1,0E0,0E0,0E0,0E0,0E0,0E0,0E0,0E0,0E0,0E0,0E0,0E0,0E0,0E0,0E0,0E0],"parents":[2147483647,0,0,1,1,2,2,3,3,4,4,5,5,6,6,7,7,8,8,9,9,10,10,11,11,12,12,13,13,14,14],"right_children":[2,4,6,8,10,12,14,16,18,20,22,24,26,28,30,-1,-1,-1,-1,-1,-1,-1,-1,-1,-1,-1,-1,-1,-1,-1,-1],"split_conditions":[8.5E1,7.1E1,7.3E1,6.3E1,6.7E1,2.6E1,7.7E1,5.9E1,6.8E1,1E0,8.4E1,7.9E1,3E1,7.5E1,8.7E1,3.0032159E-3,-4.293461E-3,-3.780985E-3,1.14931865E-2,-5.97793E-3,-7.7411655E-4,-1.8354254E-3,7.1273423E-3,-1.1002541E-3,2.5089264E-3,-2.116585E-3,-8.868103E-3,1.14325285E-2,4.9412153E-3,1.5677292E-3,9.477253E-3],"split_indices":[2,1,5,1,8,4,5,1,2,11,6,1,7,4,4,0,0,0,0,0,0,0,0,0,0,0,0,0,0,0,0],"split_type":[0,0,0,0,0,0,0,0,0,0,0,0,0,0,0,0,0,0,0,0,0,0,0,0,0,0,0,0,0,0,0],"sum_hessian":[1.92E2,8.5E1,1.07E2,1E1,7.5E1,1.4E1,9.3E1,5E0,5E0,2.5E1,5E1,2E0,1.2E1,7E0,8.6E1,1E0,4E0,1E0,4E0,2.1E1,4E0,4.6E1,4E0,1E0,1E0,3E0,9E0,3E0,4E0,8.2E1,4E0],"tree_param":{"num_deleted":"0","num_feature":"13","num_nodes":"31","size_leaf_vector":"1"}},{"base_weights":[-8.040707E-4,-1.158884E-2,6.653549E-2,-2.4335498E-2,3.395152E-2,9.089812E-2,-4.200427E-2,4.672733E-2,-3.5027903E-2,6.945977E-2,-3.695379E-2,2.3022788E-2,1.1224418E-1,-4.3359757E-3,2.0332336E-3,-8.783976E-5,9.141712E-3,-2.5553578E-3,1.2315573E-3,-2.531733E-3,5.309182E-3,1.9655228E-3,-3.0663402E-3,5.7626725E-3,-3.7481785E-3,4.4479626E-3,8.575082E-3,1.3912519E-3,-1.8835545E-3],"categories":[],"categories_nodes":[],"categories_segments":[],"categories_sizes":[],"default_left":[0,0,0,0,0,0,0,0,0,0,0,0,0,0,0,0,0,0,0,0,0,0,0,0,0,0,0,0,0],"id":59,"left_children":[1,3,5,7,9,11,13,15,17,19,21,23,25,-1,27,-1,-1,-1,-1,-1,-1,-1,-1,-1,-1,-1,-1,-1,-1],"loss_changes":[1.5255556E-1,1.0589446E-1,8.0503225E-2,1.09533004E-1,1.0327576E-1,3.218873E-2,1.19912075E-2,1.2570268E-1,1.2020865E-1,1.2445554E-1,2.843384E-2,7.190123E-2,9.579852E-3,0E0,5.144384E-3,0E0,0E0,0E0,0E0,0E0,0E0,0E0,0E0,0E0,0E0,0E0,0E0,0E0,0E0],"parents":[2147483647,0,0,1,1,2,2,3,3,4,4,5,5,6,6,7,7,8,8,9,9,10,10,11,11,12,12,14,14],"right_children":[2,4,6,8,10,12,14,16,18,20,22,24,26,-1,